digraph Tree {
node [shape=box, style="filled, rounded", color="black", fontname=helvetica] ;
edge [fontname=helvetica] ;
0 [label="waterpoint_type_other <= 0.5\nentropy = 0.99\nsamples = 39549\nvalue = [18019, 21530]\nclass = non functional", fillcolor="#399de52a"] ;
1 [label="waterpoint_type_communal standpipe multiple <= 0.5\nentropy = 0.97\nsamples = 35272\nvalue = [14304, 20968]\nclass = non functional", fillcolor="#399de551"] ;
0 -> 1 [labeldistance=2.5, labelangle=45, headlabel="True"] ;
2 [label="payment_type_never pay <= 0.5\nentropy = 0.96\nsamples = 31413\nvalue = [11807, 19606]\nclass = non functional", fillcolor="#399de565"] ;
1 -> 2 ;
3 [label="water_quality_unknown <= 0.5\nentropy = 0.89\nsamples = 18180\nvalue = [5619, 12561]\nclass = non functional", fillcolor="#399de58d"] ;
2 -> 3 ;
4 [label="payment_type_unknown <= 0.5\nentropy = 0.88\nsamples = 17710\nvalue = [5251, 12459]\nclass = non functional", fillcolor="#399de594"] ;
3 -> 4 ;
5 [label="installer_Government <= 0.5\nentropy = 0.84\nsamples = 14315\nvalue = [3890, 10425]\nclass = non functional", fillcolor="#399de5a0"] ;
4 -> 5 ;
6 [label="entropy = 0.83\nsamples = 13983\nvalue = [3687, 10296]\nclass = non functional", fillcolor="#399de5a4"] ;
5 -> 6 ;
7 [label="entropy = 0.96\nsamples = 332\nvalue = [203, 129]\nclass = functional", fillcolor="#e581395d"] ;
5 -> 7 ;
8 [label="installer_DANIDA <= 0.5\nentropy = 0.97\nsamples = 3395\nvalue = [1361, 2034]\nclass = non functional", fillcolor="#399de554"] ;
4 -> 8 ;
9 [label="entropy = 0.96\nsamples = 3277\nvalue = [1270, 2007]\nclass = non functional", fillcolor="#399de55e"] ;
8 -> 9 ;
10 [label="entropy = 0.78\nsamples = 118\nvalue = [91, 27]\nclass = functional", fillcolor="#e58139b3"] ;
8 -> 10 ;
11 [label="installer_other <= 0.5\nentropy = 0.75\nsamples = 470\nvalue = [368, 102]\nclass = functional", fillcolor="#e58139b8"] ;
3 -> 11 ;
12 [label="installer_DWE <= 0.5\nentropy = 0.94\nsamples = 231\nvalue = [149, 82]\nclass = functional", fillcolor="#e5813973"] ;
11 -> 12 ;
13 [label="entropy = 0.92\nsamples = 152\nvalue = [101, 51]\nclass = functional", fillcolor="#e581397e"] ;
12 -> 13 ;
14 [label="entropy = 0.97\nsamples = 79\nvalue = [48, 31]\nclass = functional", fillcolor="#e581395a"] ;
12 -> 14 ;
15 [label="waterpoint_type_communal standpipe <= 0.5\nentropy = 0.42\nsamples = 239\nvalue = [219, 20]\nclass = functional", fillcolor="#e58139e8"] ;
11 -> 15 ;
16 [label="entropy = 0.66\nsamples = 41\nvalue = [34, 7]\nclass = functional", fillcolor="#e58139ca"] ;
15 -> 16 ;
17 [label="entropy = 0.35\nsamples = 198\nvalue = [185, 13]\nclass = functional", fillcolor="#e58139ed"] ;
15 -> 17 ;
18 [label="installer_Central government <= 0.5\nentropy = 1.0\nsamples = 13233\nvalue = [6188, 7045]\nclass = non functional", fillcolor="#399de51f"] ;
2 -> 18 ;
19 [label="installer_RWE <= 0.5\nentropy = 1.0\nsamples = 12977\nvalue = [5950, 7027]\nclass = non functional", fillcolor="#399de527"] ;
18 -> 19 ;
20 [label="water_quality_unknown <= 0.5\nentropy = 0.99\nsamples = 12635\nvalue = [5670, 6965]\nclass = non functional", fillcolor="#399de52f"] ;
19 -> 20 ;
21 [label="entropy = 0.99\nsamples = 12440\nvalue = [5512, 6928]\nclass = non functional", fillcolor="#399de534"] ;
20 -> 21 ;
22 [label="entropy = 0.7\nsamples = 195\nvalue = [158, 37]\nclass = functional", fillcolor="#e58139c3"] ;
20 -> 22 ;
23 [label="waterpoint_type_communal standpipe <= 0.5\nentropy = 0.68\nsamples = 342\nvalue = [280, 62]\nclass = functional", fillcolor="#e58139c7"] ;
19 -> 23 ;
24 [label="entropy = 0.93\nsamples = 67\nvalue = [44, 23]\nclass = functional", fillcolor="#e581397a"] ;
23 -> 24 ;
25 [label="entropy = 0.59\nsamples = 275\nvalue = [236, 39]\nclass = functional", fillcolor="#e58139d5"] ;
23 -> 25 ;
26 [label="entropy = 0.37\nsamples = 256\nvalue = [238, 18]\nclass = functional", fillcolor="#e58139ec"] ;
18 -> 26 ;
27 [label="payment_type_per bucket <= 0.5\nentropy = 0.94\nsamples = 3859\nvalue = [2497, 1362]\nclass = functional", fillcolor="#e5813974"] ;
1 -> 27 ;
28 [label="installer_Government <= 0.5\nentropy = 0.82\nsamples = 2510\nvalue = [1861, 649]\nclass = functional", fillcolor="#e58139a6"] ;
27 -> 28 ;
29 [label="installer_FinW <= 0.5\nentropy = 0.86\nsamples = 2247\nvalue = [1612, 635]\nclass = functional", fillcolor="#e581399b"] ;
28 -> 29 ;
30 [label="installer_DWE <= 0.5\nentropy = 0.88\nsamples = 2148\nvalue = [1513, 635]\nclass = functional", fillcolor="#e5813994"] ;
29 -> 30 ;
31 [label="entropy = 0.82\nsamples = 1527\nvalue = [1141, 386]\nclass = functional", fillcolor="#e58139a9"] ;
30 -> 31 ;
32 [label="entropy = 0.97\nsamples = 621\nvalue = [372, 249]\nclass = functional", fillcolor="#e5813954"] ;
30 -> 32 ;
33 [label="entropy = 0.0\nsamples = 99\nvalue = [99, 0]\nclass = functional", fillcolor="#e58139ff"] ;
29 -> 33 ;
34 [label="payment_type_unknown <= 0.5\nentropy = 0.3\nsamples = 263\nvalue = [249, 14]\nclass = functional", fillcolor="#e58139f1"] ;
28 -> 34 ;
35 [label="payment_type_never pay <= 0.5\nentropy = 0.39\nsamples = 185\nvalue = [171, 14]\nclass = functional", fillcolor="#e58139ea"] ;
34 -> 35 ;
36 [label="entropy = 0.29\nsamples = 58\nvalue = [55, 3]\nclass = functional", fillcolor="#e58139f1"] ;
35 -> 36 ;
37 [label="entropy = 0.43\nsamples = 127\nvalue = [116, 11]\nclass = functional", fillcolor="#e58139e7"] ;
35 -> 37 ;
38 [label="entropy = 0.0\nsamples = 78\nvalue = [78, 0]\nclass = functional", fillcolor="#e58139ff"] ;
34 -> 38 ;
39 [label="installer_Commu <= 0.5\nentropy = 1.0\nsamples = 1349\nvalue = [636, 713]\nclass = non functional", fillcolor="#399de51c"] ;
27 -> 39 ;
40 [label="water_quality_soft <= 0.5\nentropy = 0.99\nsamples = 1263\nvalue = [562, 701]\nclass = non functional", fillcolor="#399de533"] ;
39 -> 40 ;
41 [label="water_quality_salty <= 0.5\nentropy = 0.99\nsamples = 236\nvalue = [129, 107]\nclass = functional", fillcolor="#e581392b"] ;
40 -> 41 ;
42 [label="entropy = 0.98\nsamples = 49\nvalue = [29, 20]\nclass = functional", fillcolor="#e581394f"] ;
41 -> 42 ;
43 [label="entropy = 1.0\nsamples = 187\nvalue = [100, 87]\nclass = functional", fillcolor="#e5813921"] ;
41 -> 43 ;
44 [label="installer_Unisef <= 0.5\nentropy = 0.98\nsamples = 1027\nvalue = [433, 594]\nclass = non functional", fillcolor="#399de545"] ;
40 -> 44 ;
45 [label="entropy = 0.99\nsamples = 984\nvalue = [423, 561]\nclass = non functional", fillcolor="#399de53f"] ;
44 -> 45 ;
46 [label="entropy = 0.78\nsamples = 43\nvalue = [10, 33]\nclass = non functional", fillcolor="#399de5b2"] ;
44 -> 46 ;
47 [label="entropy = 0.58\nsamples = 86\nvalue = [74, 12]\nclass = functional", fillcolor="#e58139d6"] ;
39 -> 47 ;
48 [label="source_class_groundwater <= 0.5\nentropy = 0.56\nsamples = 4277\nvalue = [3715, 562]\nclass = functional", fillcolor="#e58139d8"] ;
0 -> 48 [labeldistance=2.5, labelangle=-45, headlabel="False"] ;
49 [label="payment_type_never pay <= 0.5\nentropy = 0.84\nsamples = 390\nvalue = [285, 105]\nclass = functional", fillcolor="#e58139a1"] ;
48 -> 49 ;
50 [label="payment_type_unknown <= 0.5\nentropy = 0.9\nsamples = 178\nvalue = [122, 56]\nclass = functional", fillcolor="#e581398a"] ;
49 -> 50 ;
51 [label="entropy = 0.98\nsamples = 83\nvalue = [49, 34]\nclass = functional", fillcolor="#e581394e"] ;
50 -> 51 ;
52 [label="entropy = 0.78\nsamples = 95\nvalue = [73, 22]\nclass = functional", fillcolor="#e58139b2"] ;
50 -> 52 ;
53 [label="installer_DWE <= 0.5\nentropy = 0.78\nsamples = 212\nvalue = [163, 49]\nclass = functional", fillcolor="#e58139b2"] ;
49 -> 53 ;
54 [label="entropy = 0.8\nsamples = 145\nvalue = [110, 35]\nclass = functional", fillcolor="#e58139ae"] ;
53 -> 54 ;
55 [label="entropy = 0.74\nsamples = 67\nvalue = [53, 14]\nclass = functional", fillcolor="#e58139bc"] ;
53 -> 55 ;
56 [label="water_quality_milky <= 0.5\nentropy = 0.52\nsamples = 3887\nvalue = [3430, 457]\nclass = functional", fillcolor="#e58139dd"] ;
48 -> 56 ;
57 [label="installer_Kuwait <= 0.5\nentropy = 0.48\nsamples = 3637\nvalue = [3256, 381]\nclass = functional", fillcolor="#e58139e1"] ;
56 -> 57 ;
58 [label="water_quality_soft <= 0.5\nentropy = 0.46\nsamples = 3588\nvalue = [3234, 354]\nclass = functional", fillcolor="#e58139e3"] ;
57 -> 58 ;
59 [label="payment_type_per bucket <= 0.5\nentropy = 0.3\nsamples = 984\nvalue = [932, 52]\nclass = functional", fillcolor="#e58139f1"] ;
58 -> 59 ;
60 [label="entropy = 0.27\nsamples = 933\nvalue = [889, 44]\nclass = functional", fillcolor="#e58139f2"] ;
59 -> 60 ;
61 [label="entropy = 0.63\nsamples = 51\nvalue = [43, 8]\nclass = functional", fillcolor="#e58139d0"] ;
59 -> 61 ;
62 [label="installer_FW <= 0.5\nentropy = 0.52\nsamples = 2604\nvalue = [2302, 302]\nclass = functional", fillcolor="#e58139de"] ;
58 -> 62 ;
63 [label="entropy = 0.53\nsamples = 2541\nvalue = [2239, 302]\nclass = functional", fillcolor="#e58139dd"] ;
62 -> 63 ;
64 [label="entropy = 0.0\nsamples = 63\nvalue = [63, 0]\nclass = functional", fillcolor="#e58139ff"] ;
62 -> 64 ;
65 [label="entropy = 0.99\nsamples = 49\nvalue = [22, 27]\nclass = non functional", fillcolor="#399de52f"] ;
57 -> 65 ;
66 [label="payment_type_unknown <= 0.5\nentropy = 0.89\nsamples = 250\nvalue = [174, 76]\nclass = functional", fillcolor="#e5813990"] ;
56 -> 66 ;
67 [label="entropy = 0.38\nsamples = 55\nvalue = [51, 4]\nclass = functional", fillcolor="#e58139eb"] ;
66 -> 67 ;
68 [label="installer_DWE <= 0.5\nentropy = 0.95\nsamples = 195\nvalue = [123, 72]\nclass = functional", fillcolor="#e581396a"] ;
66 -> 68 ;
69 [label="entropy = 0.88\nsamples = 50\nvalue = [35, 15]\nclass = functional", fillcolor="#e5813992"] ;
68 -> 69 ;
70 [label="entropy = 0.97\nsamples = 145\nvalue = [88, 57]\nclass = functional", fillcolor="#e581395a"] ;
68 -> 70 ;
}