digraph Tree {
node [shape=box, style="filled, rounded", color="black", fontname=helvetica] ;
edge [fontname=helvetica] ;
0 [label="quantity_dry <= 0.5\nentropy = 1.0\nsamples = 34740\nvalue = [17397, 17343]\nclass = functional", fillcolor="#fffffe"] ;
1 [label="waterpoint_type_other <= 0.5\nentropy = 0.99\nsamples = 30760\nvalue = [13501, 17259]\nclass = non functional", fillcolor="#d4eaf9"] ;
0 -> 1 [labeldistance=2.5, labelangle=45, headlabel="True"] ;
2 [label="region_and_code_Iringa11 <= 0.5\nentropy = 0.97\nsamples = 27672\nvalue = [10877, 16795]\nclass = non functional", fillcolor="#b9dcf6"] ;
1 -> 2 ;
3 [label="waterpoint_type_communal standpipe multiple <= 0.5\nentropy = 0.98\nsamples = 25053\nvalue = [10485, 14568]\nclass = non functional", fillcolor="#c8e4f8"] ;
2 -> 3 ;
4 [label="entropy = 0.96\nsamples = 21965\nvalue = [8513, 13452]\nclass = non functional", fillcolor="#b6dbf5"] ;
3 -> 4 ;
5 [label="entropy = 0.94\nsamples = 3088\nvalue = [1972, 1116]\nclass = functional", fillcolor="#f4c8a9"] ;
3 -> 5 ;
6 [label="entropy = 0.61\nsamples = 2619\nvalue = [392, 2227]\nclass = non functional", fillcolor="#5caeea"] ;
2 -> 6 ;
7 [label="gps_height <= 0.05\nentropy = 0.61\nsamples = 3088\nvalue = [2624, 464]\nclass = functional", fillcolor="#ea975c"] ;
1 -> 7 ;
8 [label="entropy = 0.69\nsamples = 1513\nvalue = [1232, 281]\nclass = functional", fillcolor="#eb9e66"] ;
7 -> 8 ;
9 [label="entropy = 0.52\nsamples = 1575\nvalue = [1392, 183]\nclass = functional", fillcolor="#e89253"] ;
7 -> 9 ;
10 [label="gps_height <= 0.04\nentropy = 0.15\nsamples = 3980\nvalue = [3896, 84]\nclass = functional", fillcolor="#e6843d"] ;
0 -> 10 [labeldistance=2.5, labelangle=-45, headlabel="False"] ;
11 [label="entropy = 0.19\nsamples = 1861\nvalue = [1805, 56]\nclass = functional", fillcolor="#e6853f"] ;
10 -> 11 ;
12 [label="entropy = 0.1\nsamples = 2119\nvalue = [2091, 28]\nclass = functional", fillcolor="#e5833c"] ;
10 -> 12 ;
}