digraph Tree {
node [shape=box, style="filled, rounded", color="black", fontname=helvetica] ;
edge [fontname=helvetica] ;
0 [label="water_quality_dry <= 0.5\ngini = 0.5\nsamples = 34740\nvalue = [17397, 17343]\nclass = functional", fillcolor="#e5813901"] ;
1 [label="quantity_other <= 0.5\ngini = 0.49\nsamples = 30758\nvalue = [13501, 17257]\nclass = non functional", fillcolor="#399de538"] ;
0 -> 1 [labeldistance=2.5, labelangle=45, headlabel="True"] ;
2 [label="quantity_communal standpipe multiple <= 0.5\ngini = 0.48\nsamples = 27663\nvalue = [10877, 16786]\nclass = non functional", fillcolor="#399de55a"] ;
1 -> 2 ;
3 [label="management_never pay <= 0.5\ngini = 0.46\nsamples = 24501\nvalue = [8890, 15611]\nclass = non functional", fillcolor="#399de56e"] ;
2 -> 3 ;
4 [label="source_type_Iringa11 <= 0.5\ngini = 0.42\nsamples = 14304\nvalue = [4283, 10021]\nclass = non functional", fillcolor="#399de592"] ;
3 -> 4 ;
5 [label="public_meeting_Water Board <= 0.5\ngini = 0.44\nsamples = 12398\nvalue = [4073, 8325]\nclass = non functional", fillcolor="#399de582"] ;
4 -> 5 ;
6 [label="length_operation <= 0.19\ngini = 0.45\nsamples = 11356\nvalue = [3941, 7415]\nclass = non functional", fillcolor="#399de577"] ;
5 -> 6 ;
7 [label="water_quality_unknown <= 0.5\ngini = 0.36\nsamples = 2196\nvalue = [523, 1673]\nclass = non functional", fillcolor="#399de5af"] ;
6 -> 7 ;
8 [label="source_type_Kilimanjaro3 <= 0.5\ngini = 0.35\nsamples = 2144\nvalue = [481, 1663]\nclass = non functional", fillcolor="#399de5b5"] ;
7 -> 8 ;
9 [label="basin_Lake Tanganyika <= 0.5\ngini = 0.32\nsamples = 1918\nvalue = [382, 1536]\nclass = non functional", fillcolor="#399de5c0"] ;
8 -> 9 ;
10 [label="lga_Mkalamo <= 0.5\ngini = 0.29\nsamples = 1723\nvalue = [302, 1421]\nclass = non functional", fillcolor="#399de5c9"] ;
9 -> 10 ;
11 [label="district_code_Newala <= 0.5\ngini = 0.28\nsamples = 1709\nvalue = [288, 1421]\nclass = non functional", fillcolor="#399de5cb"] ;
10 -> 11 ;
12 [label="extraction_type_commercial <= 0.5\ngini = 0.27\nsamples = 1697\nvalue = [278, 1419]\nclass = non functional", fillcolor="#399de5cd"] ;
11 -> 12 ;
13 [label="construction_year <= 2008.5\ngini = 0.31\nsamples = 1310\nvalue = [249, 1061]\nclass = non functional", fillcolor="#399de5c3"] ;
12 -> 13 ;
14 [label="permit_other <= 0.5\ngini = 0.42\nsamples = 209\nvalue = [64, 145]\nclass = non functional", fillcolor="#399de58e"] ;
13 -> 14 ;
15 [label="lga_Diongoya <= 0.5\ngini = 0.41\nsamples = 204\nvalue = [59, 145]\nclass = non functional", fillcolor="#399de597"] ;
14 -> 15 ;
16 [label="population <= 0.01\ngini = 0.4\nsamples = 200\nvalue = [55, 145]\nclass = non functional", fillcolor="#399de59e"] ;
15 -> 16 ;
17 [label="ward_False <= 0.5\ngini = 0.32\nsamples = 133\nvalue = [27, 106]\nclass = non functional", fillcolor="#399de5be"] ;
16 -> 17 ;
18 [label="construction_year <= 2007.5\ngini = 0.29\nsamples = 122\nvalue = [21, 101]\nclass = non functional", fillcolor="#399de5ca"] ;
17 -> 18 ;
19 [label="management_on failure <= 0.5\ngini = 0.08\nsamples = 50\nvalue = [2, 48]\nclass = non functional", fillcolor="#399de5f4"] ;
18 -> 19 ;
20 [label="funder_Kilindi District Co <= 0.5\ngini = 0.04\nsamples = 49\nvalue = [1, 48]\nclass = non functional", fillcolor="#399de5fa"] ;
19 -> 20 ;
21 [label="gini = 0.0\nsamples = 48\nvalue = [0, 48]\nclass = non functional", fillcolor="#399de5ff"] ;
20 -> 21 ;
22 [label="gini = 0.0\nsamples = 1\nvalue = [1, 0]\nclass = functional", fillcolor="#e58139ff"] ;
20 -> 22 ;
23 [label="gini = 0.0\nsamples = 1\nvalue = [1, 0]\nclass = functional", fillcolor="#e58139ff"] ;
19 -> 23 ;
24 [label="lga_other <= 0.5\ngini = 0.39\nsamples = 72\nvalue = [19, 53]\nclass = non functional", fillcolor="#399de5a4"] ;
18 -> 24 ;
25 [label="gps_height <= 0.45\ngini = 0.14\nsamples = 27\nvalue = [2, 25]\nclass = non functional", fillcolor="#399de5eb"] ;
24 -> 25 ;
26 [label="lga_Chalinze <= 0.5\ngini = 0.07\nsamples = 26\nvalue = [1, 25]\nclass = non functional", fillcolor="#399de5f5"] ;
25 -> 26 ;
27 [label="gini = 0.0\nsamples = 23\nvalue = [0, 23]\nclass = non functional", fillcolor="#399de5ff"] ;
26 -> 27 ;
28 [label="gps_height <= 0.1\ngini = 0.44\nsamples = 3\nvalue = [1, 2]\nclass = non functional", fillcolor="#399de57f"] ;
26 -> 28 ;
29 [label="gini = 0.0\nsamples = 2\nvalue = [0, 2]\nclass = non functional", fillcolor="#399de5ff"] ;
28 -> 29 ;
30 [label="gini = 0.0\nsamples = 1\nvalue = [1, 0]\nclass = functional", fillcolor="#e58139ff"] ;
28 -> 30 ;
31 [label="gini = 0.0\nsamples = 1\nvalue = [1, 0]\nclass = functional", fillcolor="#e58139ff"] ;
25 -> 31 ;
32 [label="water_quality_enough <= 0.5\ngini = 0.47\nsamples = 45\nvalue = [17, 28]\nclass = non functional", fillcolor="#399de564"] ;
24 -> 32 ;
33 [label="region_and_code_4 <= 0.5\ngini = 0.47\nsamples = 13\nvalue = [8, 5]\nclass = functional", fillcolor="#e5813960"] ;
32 -> 33 ;
34 [label="funder_Ki <= 0.5\ngini = 0.4\nsamples = 11\nvalue = [8, 3]\nclass = functional", fillcolor="#e581399f"] ;
33 -> 34 ;
35 [label="installer_Handeni Trunk Main( <= 0.5\ngini = 0.32\nsamples = 10\nvalue = [8, 2]\nclass = functional", fillcolor="#e58139bf"] ;
34 -> 35 ;
36 [label="district_code_Muheza <= 0.5\ngini = 0.2\nsamples = 9\nvalue = [8, 1]\nclass = functional", fillcolor="#e58139df"] ;
35 -> 36 ;
37 [label="gini = 0.0\nsamples = 8\nvalue = [8, 0]\nclass = functional", fillcolor="#e58139ff"] ;
36 -> 37 ;
38 [label="gini = 0.0\nsamples = 1\nvalue = [0, 1]\nclass = non functional", fillcolor="#399de5ff"] ;
36 -> 38 ;
39 [label="gini = 0.0\nsamples = 1\nvalue = [0, 1]\nclass = non functional", fillcolor="#399de5ff"] ;
35 -> 39 ;
40 [label="gini = 0.0\nsamples = 1\nvalue = [0, 1]\nclass = non functional", fillcolor="#399de5ff"] ;
34 -> 40 ;
41 [label="gini = 0.0\nsamples = 2\nvalue = [0, 2]\nclass = non functional", fillcolor="#399de5ff"] ;
33 -> 41 ;
42 [label="gps_height <= 0.05\ngini = 0.4\nsamples = 32\nvalue = [9, 23]\nclass = non functional", fillcolor="#399de59b"] ;
32 -> 42 ;
43 [label="gini = 0.0\nsamples = 2\nvalue = [2, 0]\nclass = functional", fillcolor="#e58139ff"] ;
42 -> 43 ;
44 [label="management_per bucket <= 0.5\ngini = 0.36\nsamples = 30\nvalue = [7, 23]\nclass = non functional", fillcolor="#399de5b1"] ;
42 -> 44 ;
45 [label="district_code_Kilosa <= 0.5\ngini = 0.47\nsamples = 16\nvalue = [6, 10]\nclass = non functional", fillcolor="#399de566"] ;
44 -> 45 ;
46 [label="district_code_Bunda <= 0.5\ngini = 0.41\nsamples = 14\nvalue = [4, 10]\nclass = non functional", fillcolor="#399de599"] ;
45 -> 46 ;
47 [label="population <= 0.01\ngini = 0.36\nsamples = 13\nvalue = [3, 10]\nclass = non functional", fillcolor="#399de5b3"] ;
46 -> 47 ;
48 [label="district_code_Sumbawanga Rural <= 0.5\ngini = 0.49\nsamples = 7\nvalue = [3, 4]\nclass = non functional", fillcolor="#399de540"] ;
47 -> 48 ;
49 [label="gps_height <= 0.15\ngini = 0.44\nsamples = 6\nvalue = [2, 4]\nclass = non functional", fillcolor="#399de57f"] ;
48 -> 49 ;
50 [label="gini = 0.0\nsamples = 1\nvalue = [1, 0]\nclass = functional", fillcolor="#e58139ff"] ;
49 -> 50 ;
51 [label="gps_height <= 0.16\ngini = 0.32\nsamples = 5\nvalue = [1, 4]\nclass = non functional", fillcolor="#399de5bf"] ;
49 -> 51 ;
52 [label="gini = 0.0\nsamples = 2\nvalue = [0, 2]\nclass = non functional", fillcolor="#399de5ff"] ;
51 -> 52 ;
53 [label="gps_height <= 0.16\ngini = 0.44\nsamples = 3\nvalue = [1, 2]\nclass = non functional", fillcolor="#399de57f"] ;
51 -> 53 ;
54 [label="gini = 0.0\nsamples = 1\nvalue = [1, 0]\nclass = functional", fillcolor="#e58139ff"] ;
53 -> 54 ;
55 [label="gini = 0.0\nsamples = 2\nvalue = [0, 2]\nclass = non functional", fillcolor="#399de5ff"] ;
53 -> 55 ;
56 [label="gini = 0.0\nsamples = 1\nvalue = [1, 0]\nclass = functional", fillcolor="#e58139ff"] ;
48 -> 56 ;
57 [label="gini = 0.0\nsamples = 6\nvalue = [0, 6]\nclass = non functional", fillcolor="#399de5ff"] ;
47 -> 57 ;
58 [label="gini = 0.0\nsamples = 1\nvalue = [1, 0]\nclass = functional", fillcolor="#e58139ff"] ;
46 -> 58 ;
59 [label="gini = 0.0\nsamples = 2\nvalue = [2, 0]\nclass = functional", fillcolor="#e58139ff"] ;
45 -> 59 ;
60 [label="subvillage_other <= 0.5\ngini = 0.13\nsamples = 14\nvalue = [1, 13]\nclass = non functional", fillcolor="#399de5eb"] ;
44 -> 60 ;
61 [label="gini = 0.0\nsamples = 1\nvalue = [1, 0]\nclass = functional", fillcolor="#e58139ff"] ;
60 -> 61 ;
62 [label="gini = 0.0\nsamples = 13\nvalue = [0, 13]\nclass = non functional", fillcolor="#399de5ff"] ;
60 -> 62 ;
63 [label="management_monthly <= 0.5\ngini = 0.5\nsamples = 11\nvalue = [6, 5]\nclass = functional", fillcolor="#e581392a"] ;
17 -> 63 ;
64 [label="population <= 0.0\ngini = 0.44\nsamples = 9\nvalue = [6, 3]\nclass = functional", fillcolor="#e581397f"] ;
63 -> 64 ;
65 [label="gini = 0.0\nsamples = 4\nvalue = [4, 0]\nclass = functional", fillcolor="#e58139ff"] ;
64 -> 65 ;
66 [label="population <= 0.01\ngini = 0.48\nsamples = 5\nvalue = [2, 3]\nclass = non functional", fillcolor="#399de555"] ;
64 -> 66 ;
67 [label="gini = 0.0\nsamples = 3\nvalue = [0, 3]\nclass = non functional", fillcolor="#399de5ff"] ;
66 -> 67 ;
68 [label="gini = 0.0\nsamples = 2\nvalue = [2, 0]\nclass = functional", fillcolor="#e58139ff"] ;
66 -> 68 ;
69 [label="gini = 0.0\nsamples = 2\nvalue = [0, 2]\nclass = non functional", fillcolor="#399de5ff"] ;
63 -> 69 ;
70 [label="population <= 0.01\ngini = 0.49\nsamples = 67\nvalue = [28, 39]\nclass = non functional", fillcolor="#399de548"] ;
16 -> 70 ;
71 [label="gini = 0.0\nsamples = 3\nvalue = [3, 0]\nclass = functional", fillcolor="#e58139ff"] ;
70 -> 71 ;
72 [label="gps_height <= 0.14\ngini = 0.48\nsamples = 64\nvalue = [25, 39]\nclass = non functional", fillcolor="#399de55c"] ;
70 -> 72 ;
73 [label="basin_Pangani <= 0.5\ngini = 0.5\nsamples = 29\nvalue = [15, 14]\nclass = functional", fillcolor="#e5813911"] ;
72 -> 73 ;
74 [label="district_code <= 2.5\ngini = 0.45\nsamples = 20\nvalue = [13, 7]\nclass = functional", fillcolor="#e5813976"] ;
73 -> 74 ;
75 [label="funder_Is <= 0.5\ngini = 0.2\nsamples = 9\nvalue = [8, 1]\nclass = functional", fillcolor="#e58139df"] ;
74 -> 75 ;
76 [label="gini = 0.0\nsamples = 7\nvalue = [7, 0]\nclass = functional", fillcolor="#e58139ff"] ;
75 -> 76 ;
77 [label="permit_india mark ii <= 0.5\ngini = 0.5\nsamples = 2\nvalue = [1, 1]\nclass = functional", fillcolor="#e5813900"] ;
75 -> 77 ;
78 [label="gini = 0.0\nsamples = 1\nvalue = [1, 0]\nclass = functional", fillcolor="#e58139ff"] ;
77 -> 78 ;
79 [label="gini = 0.0\nsamples = 1\nvalue = [0, 1]\nclass = non functional", fillcolor="#399de5ff"] ;
77 -> 79 ;
80 [label="gps_height <= 0.13\ngini = 0.5\nsamples = 11\nvalue = [5, 6]\nclass = non functional", fillcolor="#399de52a"] ;
74 -> 80 ;
81 [label="district_code <= 38.0\ngini = 0.38\nsamples = 8\nvalue = [2, 6]\nclass = non functional", fillcolor="#399de5aa"] ;
80 -> 81 ;
82 [label="permit_submersible <= 0.5\ngini = 0.24\nsamples = 7\nvalue = [1, 6]\nclass = non functional", fillcolor="#399de5d4"] ;
81 -> 82 ;
83 [label="gini = 0.0\nsamples = 6\nvalue = [0, 6]\nclass = non functional", fillcolor="#399de5ff"] ;
82 -> 83 ;
84 [label="gini = 0.0\nsamples = 1\nvalue = [1, 0]\nclass = functional", fillcolor="#e58139ff"] ;
82 -> 84 ;
85 [label="gini = 0.0\nsamples = 1\nvalue = [1, 0]\nclass = functional", fillcolor="#e58139ff"] ;
81 -> 85 ;
86 [label="gini = 0.0\nsamples = 3\nvalue = [3, 0]\nclass = functional", fillcolor="#e58139ff"] ;
80 -> 86 ;
87 [label="water_quality_seasonal <= 0.5\ngini = 0.35\nsamples = 9\nvalue = [2, 7]\nclass = non functional", fillcolor="#399de5b6"] ;
73 -> 87 ;
88 [label="gini = 0.0\nsamples = 6\nvalue = [0, 6]\nclass = non functional", fillcolor="#399de5ff"] ;
87 -> 88 ;
89 [label="management_monthly <= 0.5\ngini = 0.44\nsamples = 3\nvalue = [2, 1]\nclass = functional", fillcolor="#e581397f"] ;
87 -> 89 ;
90 [label="gini = 0.0\nsamples = 2\nvalue = [2, 0]\nclass = functional", fillcolor="#e58139ff"] ;
89 -> 90 ;
91 [label="gini = 0.0\nsamples = 1\nvalue = [0, 1]\nclass = non functional", fillcolor="#399de5ff"] ;
89 -> 91 ;
92 [label="subvillage_other <= 0.5\ngini = 0.41\nsamples = 35\nvalue = [10, 25]\nclass = non functional", fillcolor="#399de599"] ;
72 -> 92 ;
93 [label="gps_height <= 0.15\ngini = 0.28\nsamples = 6\nvalue = [5, 1]\nclass = functional", fillcolor="#e58139cc"] ;
92 -> 93 ;
94 [label="gini = 0.0\nsamples = 1\nvalue = [0, 1]\nclass = non functional", fillcolor="#399de5ff"] ;
93 -> 94 ;
95 [label="gini = 0.0\nsamples = 5\nvalue = [5, 0]\nclass = functional", fillcolor="#e58139ff"] ;
93 -> 95 ;
96 [label="funder_Ta <= 0.5\ngini = 0.29\nsamples = 29\nvalue = [5, 24]\nclass = non functional", fillcolor="#399de5ca"] ;
92 -> 96 ;
97 [label="ward_True <= 0.5\ngini = 0.2\nsamples = 26\nvalue = [3, 23]\nclass = non functional", fillcolor="#399de5de"] ;
96 -> 97 ;
98 [label="installer_AICT <= 0.5\ngini = 0.44\nsamples = 3\nvalue = [2, 1]\nclass = functional", fillcolor="#e581397f"] ;
97 -> 98 ;
99 [label="gini = 0.0\nsamples = 2\nvalue = [2, 0]\nclass = functional", fillcolor="#e58139ff"] ;
98 -> 99 ;
100 [label="gini = 0.0\nsamples = 1\nvalue = [0, 1]\nclass = non functional", fillcolor="#399de5ff"] ;
98 -> 100 ;
101 [label="water_quality_seasonal <= 0.5\ngini = 0.08\nsamples = 23\nvalue = [1, 22]\nclass = non functional", fillcolor="#399de5f3"] ;
97 -> 101 ;
102 [label="gini = 0.0\nsamples = 19\nvalue = [0, 19]\nclass = non functional", fillcolor="#399de5ff"] ;
101 -> 102 ;
103 [label="installer_Ki <= 0.5\ngini = 0.38\nsamples = 4\nvalue = [1, 3]\nclass = non functional", fillcolor="#399de5aa"] ;
101 -> 103 ;
104 [label="gini = 0.0\nsamples = 3\nvalue = [0, 3]\nclass = non functional", fillcolor="#399de5ff"] ;
103 -> 104 ;
105 [label="gini = 0.0\nsamples = 1\nvalue = [1, 0]\nclass = functional", fillcolor="#e58139ff"] ;
103 -> 105 ;
106 [label="water_quality_insufficient <= 0.5\ngini = 0.44\nsamples = 3\nvalue = [2, 1]\nclass = functional", fillcolor="#e581397f"] ;
96 -> 106 ;
107 [label="gini = 0.0\nsamples = 2\nvalue = [2, 0]\nclass = functional", fillcolor="#e58139ff"] ;
106 -> 107 ;
108 [label="gini = 0.0\nsamples = 1\nvalue = [0, 1]\nclass = non functional", fillcolor="#399de5ff"] ;
106 -> 108 ;
109 [label="gini = 0.0\nsamples = 4\nvalue = [4, 0]\nclass = functional", fillcolor="#e58139ff"] ;
15 -> 109 ;
110 [label="gini = 0.0\nsamples = 5\nvalue = [5, 0]\nclass = functional", fillcolor="#e58139ff"] ;
14 -> 110 ;
111 [label="lga_Chakwale <= 0.5\ngini = 0.28\nsamples = 1101\nvalue = [185, 916]\nclass = non functional", fillcolor="#399de5cb"] ;
13 -> 111 ;
112 [label="waterpoint_type_2012 <= 0.5\ngini = 0.28\nsamples = 1097\nvalue = [181, 916]\nclass = non functional", fillcolor="#399de5cd"] ;
111 -> 112 ;
113 [label="public_meeting_SWC <= 0.5\ngini = 0.25\nsamples = 990\nvalue = [147, 843]\nclass = non functional", fillcolor="#399de5d3"] ;
112 -> 113 ;
114 [label="lga_Nduruma <= 0.5\ngini = 0.25\nsamples = 983\nvalue = [142, 841]\nclass = non functional", fillcolor="#399de5d4"] ;
113 -> 114 ;
115 [label="lga_Mkongo <= 0.5\ngini = 0.24\nsamples = 958\nvalue = [131, 827]\nclass = non functional", fillcolor="#399de5d7"] ;
114 -> 115 ;
116 [label="installer_Adra/Community <= 0.5\ngini = 0.23\nsamples = 955\nvalue = [128, 827]\nclass = non functional", fillcolor="#399de5d8"] ;
115 -> 116 ;
117 [label="subvillage_Miembeni <= 0.5\ngini = 0.23\nsamples = 950\nvalue = [124, 826]\nclass = non functional", fillcolor="#399de5d9"] ;
116 -> 117 ;
118 [label="installer_Communit <= 0.5\ngini = 0.22\nsamples = 946\nvalue = [121, 825]\nclass = non functional", fillcolor="#399de5da"] ;
117 -> 118 ;
119 [label="installer_District water department <= 0.5\ngini = 0.22\nsamples = 942\nvalue = [118, 824]\nclass = non functional", fillcolor="#399de5da"] ;
118 -> 119 ;
120 [label="funder_Lga <= 0.5\ngini = 0.22\nsamples = 940\nvalue = [116, 824]\nclass = non functional", fillcolor="#399de5db"] ;
119 -> 120 ;
121 [label="public_meeting_WUG <= 0.5\ngini = 0.21\nsamples = 922\nvalue = [109, 813]\nclass = non functional", fillcolor="#399de5dd"] ;
120 -> 121 ;
122 [label="gps_height <= 0.04\ngini = 0.19\nsamples = 846\nvalue = [91, 755]\nclass = non functional", fillcolor="#399de5e0"] ;
121 -> 122 ;
123 [label="length_operation <= 0.14\ngini = 0.35\nsamples = 79\nvalue = [18, 61]\nclass = non functional", fillcolor="#399de5b4"] ;
122 -> 123 ;
124 [label="district_code_Kibaha <= 0.5\ngini = 0.12\nsamples = 32\nvalue = [2, 30]\nclass = non functional", fillcolor="#399de5ee"] ;
123 -> 124 ;
125 [label="gini = 0.0\nsamples = 28\nvalue = [0, 28]\nclass = non functional", fillcolor="#399de5ff"] ;
124 -> 125 ;
126 [label="subvillage_Kati <= 0.5\ngini = 0.5\nsamples = 4\nvalue = [2, 2]\nclass = functional", fillcolor="#e5813900"] ;
124 -> 126 ;
127 [label="gps_height <= 0.03\ngini = 0.44\nsamples = 3\nvalue = [2, 1]\nclass = functional", fillcolor="#e581397f"] ;
126 -> 127 ;
128 [label="gini = 0.0\nsamples = 2\nvalue = [2, 0]\nclass = functional", fillcolor="#e58139ff"] ;
127 -> 128 ;
129 [label="gini = 0.0\nsamples = 1\nvalue = [0, 1]\nclass = non functional", fillcolor="#399de5ff"] ;
127 -> 129 ;
130 [label="gini = 0.0\nsamples = 1\nvalue = [0, 1]\nclass = non functional", fillcolor="#399de5ff"] ;
126 -> 130 ;
131 [label="public_meeting_VWC <= 0.5\ngini = 0.45\nsamples = 47\nvalue = [16, 31]\nclass = non functional", fillcolor="#399de57b"] ;
123 -> 131 ;
132 [label="installer_Da <= 0.5\ngini = 0.19\nsamples = 19\nvalue = [2, 17]\nclass = non functional", fillcolor="#399de5e1"] ;
131 -> 132 ;
133 [label="gps_height <= 0.04\ngini = 0.1\nsamples = 18\nvalue = [1, 17]\nclass = non functional", fillcolor="#399de5f0"] ;
132 -> 133 ;
134 [label="gini = 0.0\nsamples = 17\nvalue = [0, 17]\nclass = non functional", fillcolor="#399de5ff"] ;
133 -> 134 ;
135 [label="gini = 0.0\nsamples = 1\nvalue = [1, 0]\nclass = functional", fillcolor="#e58139ff"] ;
133 -> 135 ;
136 [label="gini = 0.0\nsamples = 1\nvalue = [1, 0]\nclass = functional", fillcolor="#e58139ff"] ;
132 -> 136 ;
137 [label="installer_DWE <= 0.5\ngini = 0.5\nsamples = 28\nvalue = [14, 14]\nclass = functional", fillcolor="#e5813900"] ;
131 -> 137 ;
138 [label="quality_group_river/lake <= 0.5\ngini = 0.49\nsamples = 24\nvalue = [10, 14]\nclass = non functional", fillcolor="#399de549"] ;
137 -> 138 ;
139 [label="management_monthly <= 0.5\ngini = 0.5\nsamples = 19\nvalue = [10, 9]\nclass = functional", fillcolor="#e5813919"] ;
138 -> 139 ;
140 [label="gps_height <= 0.04\ngini = 0.47\nsamples = 16\nvalue = [10, 6]\nclass = functional", fillcolor="#e5813966"] ;
139 -> 140 ;
141 [label="population <= 0.0\ngini = 0.3\nsamples = 11\nvalue = [9, 2]\nclass = functional", fillcolor="#e58139c6"] ;
140 -> 141 ;
142 [label="quantity_communal standpipe <= 0.5\ngini = 0.44\nsamples = 3\nvalue = [1, 2]\nclass = non functional", fillcolor="#399de57f"] ;
141 -> 142 ;
143 [label="gini = 0.0\nsamples = 1\nvalue = [1, 0]\nclass = functional", fillcolor="#e58139ff"] ;
142 -> 143 ;
144 [label="gini = 0.0\nsamples = 2\nvalue = [0, 2]\nclass = non functional", fillcolor="#399de5ff"] ;
142 -> 144 ;
145 [label="gini = 0.0\nsamples = 8\nvalue = [8, 0]\nclass = functional", fillcolor="#e58139ff"] ;
141 -> 145 ;
146 [label="subvillage_Shuleni <= 0.5\ngini = 0.32\nsamples = 5\nvalue = [1, 4]\nclass = non functional", fillcolor="#399de5bf"] ;
140 -> 146 ;
147 [label="gini = 0.0\nsamples = 4\nvalue = [0, 4]\nclass = non functional", fillcolor="#399de5ff"] ;
146 -> 147 ;
148 [label="gini = 0.0\nsamples = 1\nvalue = [1, 0]\nclass = functional", fillcolor="#e58139ff"] ;
146 -> 148 ;
149 [label="gini = 0.0\nsamples = 3\nvalue = [0, 3]\nclass = non functional", fillcolor="#399de5ff"] ;
139 -> 149 ;
150 [label="gini = 0.0\nsamples = 5\nvalue = [0, 5]\nclass = non functional", fillcolor="#399de5ff"] ;
138 -> 150 ;
151 [label="gini = 0.0\nsamples = 4\nvalue = [4, 0]\nclass = functional", fillcolor="#e58139ff"] ;
137 -> 151 ;
152 [label="funder_Ministry Of Water <= 0.5\ngini = 0.17\nsamples = 767\nvalue = [73, 694]\nclass = non functional", fillcolor="#399de5e4"] ;
122 -> 152 ;
153 [label="installer_Wa <= 0.5\ngini = 0.17\nsamples = 764\nvalue = [71, 693]\nclass = non functional", fillcolor="#399de5e5"] ;
152 -> 153 ;
154 [label="installer_Mission <= 0.5\ngini = 0.16\nsamples = 761\nvalue = [69, 692]\nclass = non functional", fillcolor="#399de5e6"] ;
153 -> 154 ;
155 [label="region_and_code_5 <= 0.5\ngini = 0.16\nsamples = 758\nvalue = [67, 691]\nclass = non functional", fillcolor="#399de5e6"] ;
154 -> 155 ;
156 [label="installer_TASAF <= 0.5\ngini = 0.15\nsamples = 748\nvalue = [63, 685]\nclass = non functional", fillcolor="#399de5e8"] ;
155 -> 156 ;
157 [label="lga_Diongoya <= 0.5\ngini = 0.15\nsamples = 733\nvalue = [58, 675]\nclass = non functional", fillcolor="#399de5e9"] ;
156 -> 157 ;
158 [label="district_code_Monduli <= 0.5\ngini = 0.14\nsamples = 732\nvalue = [57, 675]\nclass = non functional", fillcolor="#399de5e9"] ;
157 -> 158 ;
159 [label="subvillage_Sokoni <= 0.5\ngini = 0.14\nsamples = 731\nvalue = [56, 675]\nclass = non functional", fillcolor="#399de5ea"] ;
158 -> 159 ;
160 [label="construction_year_unknown <= 0.5\ngini = 0.14\nsamples = 730\nvalue = [55, 675]\nclass = non functional", fillcolor="#399de5ea"] ;
159 -> 160 ;
161 [label="lga_Ruanda <= 0.5\ngini = 0.14\nsamples = 729\nvalue = [54, 675]\nclass = non functional", fillcolor="#399de5eb"] ;
160 -> 161 ;
162 [label="funder_Dh <= 0.5\ngini = 0.14\nsamples = 728\nvalue = [53, 675]\nclass = non functional", fillcolor="#399de5eb"] ;
161 -> 162 ;
163 [label="funder_Ta <= 0.5\ngini = 0.13\nsamples = 727\nvalue = [52, 675]\nclass = non functional", fillcolor="#399de5eb"] ;
162 -> 163 ;
164 [label="gps_height <= 0.66\ngini = 0.13\nsamples = 726\nvalue = [51, 675]\nclass = non functional", fillcolor="#399de5ec"] ;
163 -> 164 ;
165 [label="installer_UNICEF <= 0.5\ngini = 0.12\nsamples = 709\nvalue = [46, 663]\nclass = non functional", fillcolor="#399de5ed"] ;
164 -> 165 ;
166 [label="lga_Chanzuru <= 0.5\ngini = 0.12\nsamples = 708\nvalue = [45, 663]\nclass = non functional", fillcolor="#399de5ee"] ;
165 -> 166 ;
167 [label="installer_Water board <= 0.5\ngini = 0.12\nsamples = 707\nvalue = [44, 663]\nclass = non functional", fillcolor="#399de5ee"] ;
166 -> 167 ;
168 [label="lga_Rubeho <= 0.5\ngini = 0.11\nsamples = 706\nvalue = [43, 663]\nclass = non functional", fillcolor="#399de5ee"] ;
167 -> 168 ;
169 [label="source_type_Rukwa15 <= 0.5\ngini = 0.11\nsamples = 705\nvalue = [42, 663]\nclass = non functional", fillcolor="#399de5ef"] ;
168 -> 169 ;
170 [label="lga_Chalinze <= 0.5\ngini = 0.11\nsamples = 696\nvalue = [39, 657]\nclass = non functional", fillcolor="#399de5f0"] ;
169 -> 170 ;
171 [label="funder_Dhv <= 0.5\ngini = 0.1\nsamples = 691\nvalue = [37, 654]\nclass = non functional", fillcolor="#399de5f1"] ;
170 -> 171 ;
172 [label="public_meeting_Company <= 0.5\ngini = 0.1\nsamples = 689\nvalue = [36, 653]\nclass = non functional", fillcolor="#399de5f1"] ;
171 -> 172 ;
173 [label="lga_Ketumbeine <= 0.5\ngini = 0.1\nsamples = 687\nvalue = [35, 652]\nclass = non functional", fillcolor="#399de5f1"] ;
172 -> 173 ;
174 [label="management_unknown <= 0.5\ngini = 0.09\nsamples = 685\nvalue = [34, 651]\nclass = non functional", fillcolor="#399de5f2"] ;
173 -> 174 ;
175 [label="installer_Idara ya maji <= 0.5\ngini = 0.07\nsamples = 515\nvalue = [19, 496]\nclass = non functional", fillcolor="#399de5f5"] ;
174 -> 175 ;
176 [label="installer_Government <= 0.5\ngini = 0.07\nsamples = 514\nvalue = [18, 496]\nclass = non functional", fillcolor="#399de5f6"] ;
175 -> 176 ;
177 [label="subvillage_Madukani <= 0.5\ngini = 0.06\nsamples = 513\nvalue = [17, 496]\nclass = non functional", fillcolor="#399de5f6"] ;
176 -> 177 ;
178 [label="funder_Wateraid <= 0.5\ngini = 0.06\nsamples = 511\nvalue = [16, 495]\nclass = non functional", fillcolor="#399de5f7"] ;
177 -> 178 ;
179 [label="lga_Mabwerebwere <= 0.5\ngini = 0.05\nsamples = 503\nvalue = [14, 489]\nclass = non functional", fillcolor="#399de5f8"] ;
178 -> 179 ;
180 [label="lga_Soga <= 0.5\ngini = 0.05\nsamples = 494\nvalue = [12, 482]\nclass = non functional", fillcolor="#399de5f9"] ;
179 -> 180 ;
181 [label="lga_Kiranyi <= 0.5\ngini = 0.04\nsamples = 484\nvalue = [10, 474]\nclass = non functional", fillcolor="#399de5fa"] ;
180 -> 181 ;
182 [label="district_code_Lindi Rural <= 0.5\ngini = 0.04\nsamples = 481\nvalue = [9, 472]\nclass = non functional", fillcolor="#399de5fa"] ;
181 -> 182 ;
183 [label="lga_Mbwewe <= 0.5\ngini = 0.03\nsamples = 455\nvalue = [6, 449]\nclass = non functional", fillcolor="#399de5fc"] ;
182 -> 183 ;
184 [label="district_code_Babati <= 0.5\ngini = 0.02\nsamples = 451\nvalue = [5, 446]\nclass = non functional", fillcolor="#399de5fc"] ;
183 -> 184 ;
185 [label="lga_Msindo <= 0.5\ngini = 0.02\nsamples = 446\nvalue = [4, 442]\nclass = non functional", fillcolor="#399de5fd"] ;
184 -> 185 ;
186 [label="lga_Ruhembe <= 0.5\ngini = 0.01\nsamples = 440\nvalue = [3, 437]\nclass = non functional", fillcolor="#399de5fd"] ;
185 -> 186 ;
187 [label="district_code_Morogoro Rural <= 0.5\ngini = 0.01\nsamples = 430\nvalue = [2, 428]\nclass = non functional", fillcolor="#399de5fe"] ;
186 -> 187 ;
188 [label="permit_swn 80 <= 0.5\ngini = 0.0\nsamples = 416\nvalue = [1, 415]\nclass = non functional", fillcolor="#399de5fe"] ;
187 -> 188 ;
189 [label="gini = 0.0\nsamples = 400\nvalue = [0, 400]\nclass = non functional", fillcolor="#399de5ff"] ;
188 -> 189 ;
190 [label="district_code_Kilosa <= 0.5\ngini = 0.12\nsamples = 16\nvalue = [1, 15]\nclass = non functional", fillcolor="#399de5ee"] ;
188 -> 190 ;
191 [label="gini = 0.0\nsamples = 12\nvalue = [0, 12]\nclass = non functional", fillcolor="#399de5ff"] ;
190 -> 191 ;
192 [label="installer_Ki <= 0.5\ngini = 0.38\nsamples = 4\nvalue = [1, 3]\nclass = non functional", fillcolor="#399de5aa"] ;
190 -> 192 ;
193 [label="gini = 0.0\nsamples = 1\nvalue = [1, 0]\nclass = functional", fillcolor="#e58139ff"] ;
192 -> 193 ;
194 [label="gini = 0.0\nsamples = 3\nvalue = [0, 3]\nclass = non functional", fillcolor="#399de5ff"] ;
192 -> 194 ;
195 [label="permit_gravity <= 0.5\ngini = 0.13\nsamples = 14\nvalue = [1, 13]\nclass = non functional", fillcolor="#399de5eb"] ;
187 -> 195 ;
196 [label="gini = 0.0\nsamples = 13\nvalue = [0, 13]\nclass = non functional", fillcolor="#399de5ff"] ;
195 -> 196 ;
197 [label="gini = 0.0\nsamples = 1\nvalue = [1, 0]\nclass = functional", fillcolor="#e58139ff"] ;
195 -> 197 ;
198 [label="permit_nira/tanira <= 0.5\ngini = 0.18\nsamples = 10\nvalue = [1, 9]\nclass = non functional", fillcolor="#399de5e3"] ;
186 -> 198 ;
199 [label="gini = 0.0\nsamples = 9\nvalue = [0, 9]\nclass = non functional", fillcolor="#399de5ff"] ;
198 -> 199 ;
200 [label="gini = 0.0\nsamples = 1\nvalue = [1, 0]\nclass = functional", fillcolor="#e58139ff"] ;
198 -> 200 ;
201 [label="gps_height <= 0.4\ngini = 0.28\nsamples = 6\nvalue = [1, 5]\nclass = non functional", fillcolor="#399de5cc"] ;
185 -> 201 ;
202 [label="gini = 0.0\nsamples = 5\nvalue = [0, 5]\nclass = non functional", fillcolor="#399de5ff"] ;
201 -> 202 ;
203 [label="gini = 0.0\nsamples = 1\nvalue = [1, 0]\nclass = functional", fillcolor="#e58139ff"] ;
201 -> 203 ;
204 [label="permit_india mark ii <= 0.5\ngini = 0.32\nsamples = 5\nvalue = [1, 4]\nclass = non functional", fillcolor="#399de5bf"] ;
184 -> 204 ;
205 [label="gini = 0.0\nsamples = 4\nvalue = [0, 4]\nclass = non functional", fillcolor="#399de5ff"] ;
204 -> 205 ;
206 [label="gini = 0.0\nsamples = 1\nvalue = [1, 0]\nclass = functional", fillcolor="#e58139ff"] ;
204 -> 206 ;
207 [label="population <= 0.0\ngini = 0.38\nsamples = 4\nvalue = [1, 3]\nclass = non functional", fillcolor="#399de5aa"] ;
183 -> 207 ;
208 [label="population <= 0.0\ngini = 0.5\nsamples = 2\nvalue = [1, 1]\nclass = functional", fillcolor="#e5813900"] ;
207 -> 208 ;
209 [label="gini = 0.0\nsamples = 1\nvalue = [0, 1]\nclass = non functional", fillcolor="#399de5ff"] ;
208 -> 209 ;
210 [label="gini = 0.0\nsamples = 1\nvalue = [1, 0]\nclass = functional", fillcolor="#e58139ff"] ;
208 -> 210 ;
211 [label="gini = 0.0\nsamples = 2\nvalue = [0, 2]\nclass = non functional", fillcolor="#399de5ff"] ;
207 -> 211 ;
212 [label="permit_submersible <= 0.5\ngini = 0.2\nsamples = 26\nvalue = [3, 23]\nclass = non functional", fillcolor="#399de5de"] ;
182 -> 212 ;
213 [label="gps_height <= 0.18\ngini = 0.15\nsamples = 25\nvalue = [2, 23]\nclass = non functional", fillcolor="#399de5e9"] ;
212 -> 213 ;
214 [label="population <= 0.01\ngini = 0.08\nsamples = 24\nvalue = [1, 23]\nclass = non functional", fillcolor="#399de5f4"] ;
213 -> 214 ;
215 [label="gini = 0.0\nsamples = 18\nvalue = [0, 18]\nclass = non functional", fillcolor="#399de5ff"] ;
214 -> 215 ;
216 [label="gps_height <= 0.06\ngini = 0.28\nsamples = 6\nvalue = [1, 5]\nclass = non functional", fillcolor="#399de5cc"] ;
214 -> 216 ;
217 [label="ward_True <= 0.5\ngini = 0.5\nsamples = 2\nvalue = [1, 1]\nclass = functional", fillcolor="#e5813900"] ;
216 -> 217 ;
218 [label="gini = 0.0\nsamples = 1\nvalue = [1, 0]\nclass = functional", fillcolor="#e58139ff"] ;
217 -> 218 ;
219 [label="gini = 0.0\nsamples = 1\nvalue = [0, 1]\nclass = non functional", fillcolor="#399de5ff"] ;
217 -> 219 ;
220 [label="gini = 0.0\nsamples = 4\nvalue = [0, 4]\nclass = non functional", fillcolor="#399de5ff"] ;
216 -> 220 ;
221 [label="gini = 0.0\nsamples = 1\nvalue = [1, 0]\nclass = functional", fillcolor="#e58139ff"] ;
213 -> 221 ;
222 [label="gini = 0.0\nsamples = 1\nvalue = [1, 0]\nclass = functional", fillcolor="#e58139ff"] ;
212 -> 222 ;
223 [label="gps_height <= 0.53\ngini = 0.44\nsamples = 3\nvalue = [1, 2]\nclass = non functional", fillcolor="#399de57f"] ;
181 -> 223 ;
224 [label="gini = 0.0\nsamples = 1\nvalue = [1, 0]\nclass = functional", fillcolor="#e58139ff"] ;
223 -> 224 ;
225 [label="gini = 0.0\nsamples = 2\nvalue = [0, 2]\nclass = non functional", fillcolor="#399de5ff"] ;
223 -> 225 ;
226 [label="public_meeting_VWC <= 0.5\ngini = 0.32\nsamples = 10\nvalue = [2, 8]\nclass = non functional", fillcolor="#399de5bf"] ;
180 -> 226 ;
227 [label="gini = 0.0\nsamples = 7\nvalue = [0, 7]\nclass = non functional", fillcolor="#399de5ff"] ;
226 -> 227 ;
228 [label="population <= 0.0\ngini = 0.44\nsamples = 3\nvalue = [2, 1]\nclass = functional", fillcolor="#e581397f"] ;
226 -> 228 ;
229 [label="gps_height <= 0.07\ngini = 0.5\nsamples = 2\nvalue = [1, 1]\nclass = functional", fillcolor="#e5813900"] ;
228 -> 229 ;
230 [label="gini = 0.0\nsamples = 1\nvalue = [1, 0]\nclass = functional", fillcolor="#e58139ff"] ;
229 -> 230 ;
231 [label="gini = 0.0\nsamples = 1\nvalue = [0, 1]\nclass = non functional", fillcolor="#399de5ff"] ;
229 -> 231 ;
232 [label="gini = 0.0\nsamples = 1\nvalue = [1, 0]\nclass = functional", fillcolor="#e58139ff"] ;
228 -> 232 ;
233 [label="permit_swn 80 <= 0.5\ngini = 0.35\nsamples = 9\nvalue = [2, 7]\nclass = non functional", fillcolor="#399de5b6"] ;
179 -> 233 ;
234 [label="population <= 0.0\ngini = 0.22\nsamples = 8\nvalue = [1, 7]\nclass = non functional", fillcolor="#399de5db"] ;
233 -> 234 ;
235 [label="gini = 0.0\nsamples = 1\nvalue = [1, 0]\nclass = functional", fillcolor="#e58139ff"] ;
234 -> 235 ;
236 [label="gini = 0.0\nsamples = 7\nvalue = [0, 7]\nclass = non functional", fillcolor="#399de5ff"] ;
234 -> 236 ;
237 [label="gini = 0.0\nsamples = 1\nvalue = [1, 0]\nclass = functional", fillcolor="#e58139ff"] ;
233 -> 237 ;
238 [label="region_and_code_1 <= 0.5\ngini = 0.38\nsamples = 8\nvalue = [2, 6]\nclass = non functional", fillcolor="#399de5aa"] ;
178 -> 238 ;
239 [label="gini = 0.0\nsamples = 6\nvalue = [0, 6]\nclass = non functional", fillcolor="#399de5ff"] ;
238 -> 239 ;
240 [label="gini = 0.0\nsamples = 2\nvalue = [2, 0]\nclass = functional", fillcolor="#e58139ff"] ;
238 -> 240 ;
241 [label="construction_year_parastatal <= 0.5\ngini = 0.5\nsamples = 2\nvalue = [1, 1]\nclass = functional", fillcolor="#e5813900"] ;
177 -> 241 ;
242 [label="gini = 0.0\nsamples = 1\nvalue = [1, 0]\nclass = functional", fillcolor="#e58139ff"] ;
241 -> 242 ;
243 [label="gini = 0.0\nsamples = 1\nvalue = [0, 1]\nclass = non functional", fillcolor="#399de5ff"] ;
241 -> 243 ;
244 [label="gini = 0.0\nsamples = 1\nvalue = [1, 0]\nclass = functional", fillcolor="#e58139ff"] ;
176 -> 244 ;
245 [label="gini = 0.0\nsamples = 1\nvalue = [1, 0]\nclass = functional", fillcolor="#e58139ff"] ;
175 -> 245 ;
246 [label="funder_World Bank <= 0.5\ngini = 0.16\nsamples = 170\nvalue = [15, 155]\nclass = non functional", fillcolor="#399de5e6"] ;
174 -> 246 ;
247 [label="basin_Wami / Ruvu <= 0.5\ngini = 0.13\nsamples = 166\nvalue = [12, 154]\nclass = non functional", fillcolor="#399de5eb"] ;
246 -> 247 ;
248 [label="population <= 0.01\ngini = 0.13\nsamples = 164\nvalue = [11, 153]\nclass = non functional", fillcolor="#399de5ed"] ;
247 -> 248 ;
249 [label="subvillage_Shuleni <= 0.5\ngini = 0.2\nsamples = 79\nvalue = [9, 70]\nclass = non functional", fillcolor="#399de5de"] ;
248 -> 249 ;
250 [label="construction_year_wua <= 0.5\ngini = 0.18\nsamples = 78\nvalue = [8, 70]\nclass = non functional", fillcolor="#399de5e2"] ;
249 -> 250 ;
251 [label="funder_Dwe <= 0.5\ngini = 0.15\nsamples = 73\nvalue = [6, 67]\nclass = non functional", fillcolor="#399de5e8"] ;
250 -> 251 ;
252 [label="lga_Myangayanga <= 0.5\ngini = 0.13\nsamples = 71\nvalue = [5, 66]\nclass = non functional", fillcolor="#399de5ec"] ;
251 -> 252 ;
253 [label="source_type_Arusha2 <= 0.5\ngini = 0.11\nsamples = 68\nvalue = [4, 64]\nclass = non functional", fillcolor="#399de5ef"] ;
252 -> 253 ;
254 [label="gini = 0.0\nsamples = 28\nvalue = [0, 28]\nclass = non functional", fillcolor="#399de5ff"] ;
253 -> 254 ;
255 [label="gps_height <= 0.43\ngini = 0.18\nsamples = 40\nvalue = [4, 36]\nclass = non functional", fillcolor="#399de5e3"] ;
253 -> 255 ;
256 [label="gps_height <= 0.43\ngini = 0.5\nsamples = 2\nvalue = [1, 1]\nclass = functional", fillcolor="#e5813900"] ;
255 -> 256 ;
257 [label="gini = 0.0\nsamples = 1\nvalue = [0, 1]\nclass = non functional", fillcolor="#399de5ff"] ;
256 -> 257 ;
258 [label="gini = 0.0\nsamples = 1\nvalue = [1, 0]\nclass = functional", fillcolor="#e58139ff"] ;
256 -> 258 ;
259 [label="funder_other <= 0.5\ngini = 0.15\nsamples = 38\nvalue = [3, 35]\nclass = non functional", fillcolor="#399de5e9"] ;
255 -> 259 ;
260 [label="district_code_Meru <= 0.5\ngini = 0.07\nsamples = 27\nvalue = [1, 26]\nclass = non functional", fillcolor="#399de5f5"] ;
259 -> 260 ;
261 [label="gps_height <= 0.51\ngini = 0.22\nsamples = 8\nvalue = [1, 7]\nclass = non functional", fillcolor="#399de5db"] ;
260 -> 261 ;
262 [label="gini = 0.0\nsamples = 5\nvalue = [0, 5]\nclass = non functional", fillcolor="#399de5ff"] ;
261 -> 262 ;
263 [label="gps_height <= 0.51\ngini = 0.44\nsamples = 3\nvalue = [1, 2]\nclass = non functional", fillcolor="#399de57f"] ;
261 -> 263 ;
264 [label="gini = 0.0\nsamples = 1\nvalue = [1, 0]\nclass = functional", fillcolor="#e58139ff"] ;
263 -> 264 ;
265 [label="gini = 0.0\nsamples = 2\nvalue = [0, 2]\nclass = non functional", fillcolor="#399de5ff"] ;
263 -> 265 ;
266 [label="gini = 0.0\nsamples = 19\nvalue = [0, 19]\nclass = non functional", fillcolor="#399de5ff"] ;
260 -> 266 ;
267 [label="population <= 0.0\ngini = 0.3\nsamples = 11\nvalue = [2, 9]\nclass = non functional", fillcolor="#399de5c6"] ;
259 -> 267 ;
268 [label="population <= 0.0\ngini = 0.48\nsamples = 5\nvalue = [2, 3]\nclass = non functional", fillcolor="#399de555"] ;
267 -> 268 ;
269 [label="gps_height <= 0.47\ngini = 0.38\nsamples = 4\nvalue = [1, 3]\nclass = non functional", fillcolor="#399de5aa"] ;
268 -> 269 ;
270 [label="gps_height <= 0.47\ngini = 0.5\nsamples = 2\nvalue = [1, 1]\nclass = functional", fillcolor="#e5813900"] ;
269 -> 270 ;
271 [label="gini = 0.0\nsamples = 1\nvalue = [0, 1]\nclass = non functional", fillcolor="#399de5ff"] ;
270 -> 271 ;
272 [label="gini = 0.0\nsamples = 1\nvalue = [1, 0]\nclass = functional", fillcolor="#e58139ff"] ;
270 -> 272 ;
273 [label="gini = 0.0\nsamples = 2\nvalue = [0, 2]\nclass = non functional", fillcolor="#399de5ff"] ;
269 -> 273 ;
274 [label="gini = 0.0\nsamples = 1\nvalue = [1, 0]\nclass = functional", fillcolor="#e58139ff"] ;
268 -> 274 ;
275 [label="gini = 0.0\nsamples = 6\nvalue = [0, 6]\nclass = non functional", fillcolor="#399de5ff"] ;
267 -> 275 ;
276 [label="basin_Lake Nyasa <= 0.5\ngini = 0.44\nsamples = 3\nvalue = [1, 2]\nclass = non functional", fillcolor="#399de57f"] ;
252 -> 276 ;
277 [label="gini = 0.0\nsamples = 1\nvalue = [1, 0]\nclass = functional", fillcolor="#e58139ff"] ;
276 -> 277 ;
278 [label="gini = 0.0\nsamples = 2\nvalue = [0, 2]\nclass = non functional", fillcolor="#399de5ff"] ;
276 -> 278 ;
279 [label="population <= 0.0\ngini = 0.5\nsamples = 2\nvalue = [1, 1]\nclass = functional", fillcolor="#e5813900"] ;
251 -> 279 ;
280 [label="gini = 0.0\nsamples = 1\nvalue = [1, 0]\nclass = functional", fillcolor="#e58139ff"] ;
279 -> 280 ;
281 [label="gini = 0.0\nsamples = 1\nvalue = [0, 1]\nclass = non functional", fillcolor="#399de5ff"] ;
279 -> 281 ;
282 [label="quality_group_borehole <= 0.5\ngini = 0.48\nsamples = 5\nvalue = [2, 3]\nclass = non functional", fillcolor="#399de555"] ;
250 -> 282 ;
283 [label="lga_Kikatiti <= 0.5\ngini = 0.44\nsamples = 3\nvalue = [2, 1]\nclass = functional", fillcolor="#e581397f"] ;
282 -> 283 ;
284 [label="gini = 0.0\nsamples = 2\nvalue = [2, 0]\nclass = functional", fillcolor="#e58139ff"] ;
283 -> 284 ;
285 [label="gini = 0.0\nsamples = 1\nvalue = [0, 1]\nclass = non functional", fillcolor="#399de5ff"] ;
283 -> 285 ;
286 [label="gini = 0.0\nsamples = 2\nvalue = [0, 2]\nclass = non functional", fillcolor="#399de5ff"] ;
282 -> 286 ;
287 [label="gini = 0.0\nsamples = 1\nvalue = [1, 0]\nclass = functional", fillcolor="#e58139ff"] ;
249 -> 287 ;
288 [label="permit_afridev <= 0.5\ngini = 0.05\nsamples = 85\nvalue = [2, 83]\nclass = non functional", fillcolor="#399de5f9"] ;
248 -> 288 ;
289 [label="lga_Maji ya Chai <= 0.5\ngini = 0.02\nsamples = 83\nvalue = [1, 82]\nclass = non functional", fillcolor="#399de5fc"] ;
288 -> 289 ;
290 [label="gini = 0.0\nsamples = 75\nvalue = [0, 75]\nclass = non functional", fillcolor="#399de5ff"] ;
289 -> 290 ;
291 [label="gps_height <= 0.42\ngini = 0.22\nsamples = 8\nvalue = [1, 7]\nclass = non functional", fillcolor="#399de5db"] ;
289 -> 291 ;
292 [label="gini = 0.0\nsamples = 1\nvalue = [1, 0]\nclass = functional", fillcolor="#e58139ff"] ;
291 -> 292 ;
293 [label="gini = 0.0\nsamples = 7\nvalue = [0, 7]\nclass = non functional", fillcolor="#399de5ff"] ;
291 -> 293 ;
294 [label="construction_year <= 2010.0\ngini = 0.5\nsamples = 2\nvalue = [1, 1]\nclass = functional", fillcolor="#e5813900"] ;
288 -> 294 ;
295 [label="gini = 0.0\nsamples = 1\nvalue = [1, 0]\nclass = functional", fillcolor="#e58139ff"] ;
294 -> 295 ;
296 [label="gini = 0.0\nsamples = 1\nvalue = [0, 1]\nclass = non functional", fillcolor="#399de5ff"] ;
294 -> 296 ;
297 [label="length_operation <= 0.13\ngini = 0.5\nsamples = 2\nvalue = [1, 1]\nclass = functional", fillcolor="#e5813900"] ;
247 -> 297 ;
298 [label="gini = 0.0\nsamples = 1\nvalue = [1, 0]\nclass = functional", fillcolor="#e58139ff"] ;
297 -> 298 ;
299 [label="gini = 0.0\nsamples = 1\nvalue = [0, 1]\nclass = non functional", fillcolor="#399de5ff"] ;
297 -> 299 ;
300 [label="permit_nira/tanira <= 0.5\ngini = 0.38\nsamples = 4\nvalue = [3, 1]\nclass = functional", fillcolor="#e58139aa"] ;
246 -> 300 ;
301 [label="gini = 0.0\nsamples = 3\nvalue = [3, 0]\nclass = functional", fillcolor="#e58139ff"] ;
300 -> 301 ;
302 [label="gini = 0.0\nsamples = 1\nvalue = [0, 1]\nclass = non functional", fillcolor="#399de5ff"] ;
300 -> 302 ;
303 [label="scheme_management_False <= 0.5\ngini = 0.5\nsamples = 2\nvalue = [1, 1]\nclass = functional", fillcolor="#e5813900"] ;
173 -> 303 ;
304 [label="gini = 0.0\nsamples = 1\nvalue = [0, 1]\nclass = non functional", fillcolor="#399de5ff"] ;
303 -> 304 ;
305 [label="gini = 0.0\nsamples = 1\nvalue = [1, 0]\nclass = functional", fillcolor="#e58139ff"] ;
303 -> 305 ;
306 [label="gps_height <= 0.12\ngini = 0.5\nsamples = 2\nvalue = [1, 1]\nclass = functional", fillcolor="#e5813900"] ;
172 -> 306 ;
307 [label="gini = 0.0\nsamples = 1\nvalue = [0, 1]\nclass = non functional", fillcolor="#399de5ff"] ;
306 -> 307 ;
308 [label="gini = 0.0\nsamples = 1\nvalue = [1, 0]\nclass = functional", fillcolor="#e58139ff"] ;
306 -> 308 ;
309 [label="quality_group_shallow well <= 0.5\ngini = 0.5\nsamples = 2\nvalue = [1, 1]\nclass = functional", fillcolor="#e5813900"] ;
171 -> 309 ;
310 [label="gini = 0.0\nsamples = 1\nvalue = [0, 1]\nclass = non functional", fillcolor="#399de5ff"] ;
309 -> 310 ;
311 [label="gini = 0.0\nsamples = 1\nvalue = [1, 0]\nclass = functional", fillcolor="#e58139ff"] ;
309 -> 311 ;
312 [label="funder_other <= 0.5\ngini = 0.48\nsamples = 5\nvalue = [2, 3]\nclass = non functional", fillcolor="#399de555"] ;
170 -> 312 ;
313 [label="gini = 0.0\nsamples = 3\nvalue = [0, 3]\nclass = non functional", fillcolor="#399de5ff"] ;
312 -> 313 ;
314 [label="gini = 0.0\nsamples = 2\nvalue = [2, 0]\nclass = functional", fillcolor="#e58139ff"] ;
312 -> 314 ;
315 [label="region_and_code_8 <= 0.5\ngini = 0.44\nsamples = 9\nvalue = [3, 6]\nclass = non functional", fillcolor="#399de57f"] ;
169 -> 315 ;
316 [label="management_on failure <= 0.5\ngini = 0.24\nsamples = 7\nvalue = [1, 6]\nclass = non functional", fillcolor="#399de5d4"] ;
315 -> 316 ;
317 [label="gini = 0.0\nsamples = 6\nvalue = [0, 6]\nclass = non functional", fillcolor="#399de5ff"] ;
316 -> 317 ;
318 [label="gini = 0.0\nsamples = 1\nvalue = [1, 0]\nclass = functional", fillcolor="#e58139ff"] ;
316 -> 318 ;
319 [label="gini = 0.0\nsamples = 2\nvalue = [2, 0]\nclass = functional", fillcolor="#e58139ff"] ;
315 -> 319 ;
320 [label="gini = 0.0\nsamples = 1\nvalue = [1, 0]\nclass = functional", fillcolor="#e58139ff"] ;
168 -> 320 ;
321 [label="gini = 0.0\nsamples = 1\nvalue = [1, 0]\nclass = functional", fillcolor="#e58139ff"] ;
167 -> 321 ;
322 [label="gini = 0.0\nsamples = 1\nvalue = [1, 0]\nclass = functional", fillcolor="#e58139ff"] ;
166 -> 322 ;
323 [label="gini = 0.0\nsamples = 1\nvalue = [1, 0]\nclass = functional", fillcolor="#e58139ff"] ;
165 -> 323 ;
324 [label="management_per bucket <= 0.5\ngini = 0.42\nsamples = 17\nvalue = [5, 12]\nclass = non functional", fillcolor="#399de595"] ;
164 -> 324 ;
325 [label="gini = 0.0\nsamples = 11\nvalue = [0, 11]\nclass = non functional", fillcolor="#399de5ff"] ;
324 -> 325 ;
326 [label="gps_height <= 0.68\ngini = 0.28\nsamples = 6\nvalue = [5, 1]\nclass = functional", fillcolor="#e58139cc"] ;
324 -> 326 ;
327 [label="gini = 0.0\nsamples = 5\nvalue = [5, 0]\nclass = functional", fillcolor="#e58139ff"] ;
326 -> 327 ;
328 [label="gini = 0.0\nsamples = 1\nvalue = [0, 1]\nclass = non functional", fillcolor="#399de5ff"] ;
326 -> 328 ;
329 [label="gini = 0.0\nsamples = 1\nvalue = [1, 0]\nclass = functional", fillcolor="#e58139ff"] ;
163 -> 329 ;
330 [label="gini = 0.0\nsamples = 1\nvalue = [1, 0]\nclass = functional", fillcolor="#e58139ff"] ;
162 -> 330 ;
331 [label="gini = 0.0\nsamples = 1\nvalue = [1, 0]\nclass = functional", fillcolor="#e58139ff"] ;
161 -> 331 ;
332 [label="gini = 0.0\nsamples = 1\nvalue = [1, 0]\nclass = functional", fillcolor="#e58139ff"] ;
160 -> 332 ;
333 [label="gini = 0.0\nsamples = 1\nvalue = [1, 0]\nclass = functional", fillcolor="#e58139ff"] ;
159 -> 333 ;
334 [label="gini = 0.0\nsamples = 1\nvalue = [1, 0]\nclass = functional", fillcolor="#e58139ff"] ;
158 -> 334 ;
335 [label="gini = 0.0\nsamples = 1\nvalue = [1, 0]\nclass = functional", fillcolor="#e58139ff"] ;
157 -> 335 ;
336 [label="water_quality_insufficient <= 0.5\ngini = 0.44\nsamples = 15\nvalue = [5, 10]\nclass = non functional", fillcolor="#399de57f"] ;
156 -> 336 ;
337 [label="permit_other <= 0.5\ngini = 0.17\nsamples = 11\nvalue = [1, 10]\nclass = non functional", fillcolor="#399de5e6"] ;
336 -> 337 ;
338 [label="gini = 0.0\nsamples = 10\nvalue = [0, 10]\nclass = non functional", fillcolor="#399de5ff"] ;
337 -> 338 ;
339 [label="gini = 0.0\nsamples = 1\nvalue = [1, 0]\nclass = functional", fillcolor="#e58139ff"] ;
337 -> 339 ;
340 [label="gini = 0.0\nsamples = 4\nvalue = [4, 0]\nclass = functional", fillcolor="#e58139ff"] ;
336 -> 340 ;
341 [label="installer_other <= 0.5\ngini = 0.48\nsamples = 10\nvalue = [4, 6]\nclass = non functional", fillcolor="#399de555"] ;
155 -> 341 ;
342 [label="gini = 0.0\nsamples = 5\nvalue = [0, 5]\nclass = non functional", fillcolor="#399de5ff"] ;
341 -> 342 ;
343 [label="gps_height <= 0.51\ngini = 0.32\nsamples = 5\nvalue = [4, 1]\nclass = functional", fillcolor="#e58139bf"] ;
341 -> 343 ;
344 [label="gini = 0.0\nsamples = 3\nvalue = [3, 0]\nclass = functional", fillcolor="#e58139ff"] ;
343 -> 344 ;
345 [label="gps_height <= 0.51\ngini = 0.5\nsamples = 2\nvalue = [1, 1]\nclass = functional", fillcolor="#e5813900"] ;
343 -> 345 ;
346 [label="gini = 0.0\nsamples = 1\nvalue = [0, 1]\nclass = non functional", fillcolor="#399de5ff"] ;
345 -> 346 ;
347 [label="gini = 0.0\nsamples = 1\nvalue = [1, 0]\nclass = functional", fillcolor="#e58139ff"] ;
345 -> 347 ;
348 [label="population <= 0.01\ngini = 0.44\nsamples = 3\nvalue = [2, 1]\nclass = functional", fillcolor="#e581397f"] ;
154 -> 348 ;
349 [label="gini = 0.0\nsamples = 2\nvalue = [2, 0]\nclass = functional", fillcolor="#e58139ff"] ;
348 -> 349 ;
350 [label="gini = 0.0\nsamples = 1\nvalue = [0, 1]\nclass = non functional", fillcolor="#399de5ff"] ;
348 -> 350 ;
351 [label="gps_height <= 0.12\ngini = 0.44\nsamples = 3\nvalue = [2, 1]\nclass = functional", fillcolor="#e581397f"] ;
153 -> 351 ;
352 [label="gini = 0.0\nsamples = 2\nvalue = [2, 0]\nclass = functional", fillcolor="#e58139ff"] ;
351 -> 352 ;
353 [label="gini = 0.0\nsamples = 1\nvalue = [0, 1]\nclass = non functional", fillcolor="#399de5ff"] ;
351 -> 353 ;
354 [label="basin_Rufiji <= 0.5\ngini = 0.44\nsamples = 3\nvalue = [2, 1]\nclass = functional", fillcolor="#e581397f"] ;
152 -> 354 ;
355 [label="gini = 0.0\nsamples = 2\nvalue = [2, 0]\nclass = functional", fillcolor="#e58139ff"] ;
354 -> 355 ;
356 [label="gini = 0.0\nsamples = 1\nvalue = [0, 1]\nclass = non functional", fillcolor="#399de5ff"] ;
354 -> 356 ;
357 [label="district_code <= 9.0\ngini = 0.36\nsamples = 76\nvalue = [18, 58]\nclass = non functional", fillcolor="#399de5b0"] ;
121 -> 357 ;
358 [label="gps_height <= 0.06\ngini = 0.34\nsamples = 74\nvalue = [16, 58]\nclass = non functional", fillcolor="#399de5b9"] ;
357 -> 358 ;
359 [label="gini = 0.0\nsamples = 17\nvalue = [0, 17]\nclass = non functional", fillcolor="#399de5ff"] ;
358 -> 359 ;
360 [label="installer_0 <= 0.5\ngini = 0.4\nsamples = 57\nvalue = [16, 41]\nclass = non functional", fillcolor="#399de59b"] ;
358 -> 360 ;
361 [label="basin_Internal <= 0.5\ngini = 0.38\nsamples = 55\nvalue = [14, 41]\nclass = non functional", fillcolor="#399de5a8"] ;
360 -> 361 ;
362 [label="gps_height <= 0.19\ngini = 0.43\nsamples = 45\nvalue = [14, 31]\nclass = non functional", fillcolor="#399de58c"] ;
361 -> 362 ;
363 [label="gini = 0.0\nsamples = 9\nvalue = [0, 9]\nclass = non functional", fillcolor="#399de5ff"] ;
362 -> 363 ;
364 [label="population <= 0.01\ngini = 0.48\nsamples = 36\nvalue = [14, 22]\nclass = non functional", fillcolor="#399de55d"] ;
362 -> 364 ;
365 [label="district_code_Mbinga <= 0.5\ngini = 0.5\nsamples = 20\nvalue = [11, 9]\nclass = functional", fillcolor="#e581392e"] ;
364 -> 365 ;
366 [label="construction_year <= 2009.5\ngini = 0.41\nsamples = 14\nvalue = [10, 4]\nclass = functional", fillcolor="#e5813999"] ;
365 -> 366 ;
367 [label="basin_Ruvuma / Southern Coast <= 0.5\ngini = 0.38\nsamples = 4\nvalue = [1, 3]\nclass = non functional", fillcolor="#399de5aa"] ;
366 -> 367 ;
368 [label="gini = 0.0\nsamples = 3\nvalue = [0, 3]\nclass = non functional", fillcolor="#399de5ff"] ;
367 -> 368 ;
369 [label="gini = 0.0\nsamples = 1\nvalue = [1, 0]\nclass = functional", fillcolor="#e58139ff"] ;
367 -> 369 ;
370 [label="basin_Lake Nyasa <= 0.5\ngini = 0.18\nsamples = 10\nvalue = [9, 1]\nclass = functional", fillcolor="#e58139e3"] ;
366 -> 370 ;
371 [label="gini = 0.0\nsamples = 9\nvalue = [9, 0]\nclass = functional", fillcolor="#e58139ff"] ;
370 -> 371 ;
372 [label="gini = 0.0\nsamples = 1\nvalue = [0, 1]\nclass = non functional", fillcolor="#399de5ff"] ;
370 -> 372 ;
373 [label="funder_Private <= 0.5\ngini = 0.28\nsamples = 6\nvalue = [1, 5]\nclass = non functional", fillcolor="#399de5cc"] ;
365 -> 373 ;
374 [label="gini = 0.0\nsamples = 5\nvalue = [0, 5]\nclass = non functional", fillcolor="#399de5ff"] ;
373 -> 374 ;
375 [label="gini = 0.0\nsamples = 1\nvalue = [1, 0]\nclass = functional", fillcolor="#e58139ff"] ;
373 -> 375 ;
376 [label="funder_Wsdp <= 0.5\ngini = 0.3\nsamples = 16\nvalue = [3, 13]\nclass = non functional", fillcolor="#399de5c4"] ;
364 -> 376 ;
377 [label="permit_nira/tanira <= 0.5\ngini = 0.23\nsamples = 15\nvalue = [2, 13]\nclass = non functional", fillcolor="#399de5d8"] ;
376 -> 377 ;
378 [label="gps_height <= 0.56\ngini = 0.13\nsamples = 14\nvalue = [1, 13]\nclass = non functional", fillcolor="#399de5eb"] ;
377 -> 378 ;
379 [label="gini = 0.0\nsamples = 13\nvalue = [0, 13]\nclass = non functional", fillcolor="#399de5ff"] ;
378 -> 379 ;
380 [label="gini = 0.0\nsamples = 1\nvalue = [1, 0]\nclass = functional", fillcolor="#e58139ff"] ;
378 -> 380 ;
381 [label="gini = 0.0\nsamples = 1\nvalue = [1, 0]\nclass = functional", fillcolor="#e58139ff"] ;
377 -> 381 ;
382 [label="gini = 0.0\nsamples = 1\nvalue = [1, 0]\nclass = functional", fillcolor="#e58139ff"] ;
376 -> 382 ;
383 [label="gini = 0.0\nsamples = 10\nvalue = [0, 10]\nclass = non functional", fillcolor="#399de5ff"] ;
361 -> 383 ;
384 [label="gini = 0.0\nsamples = 2\nvalue = [2, 0]\nclass = functional", fillcolor="#e58139ff"] ;
360 -> 384 ;
385 [label="gini = 0.0\nsamples = 2\nvalue = [2, 0]\nclass = functional", fillcolor="#e58139ff"] ;
357 -> 385 ;
386 [label="length_operation <= 0.13\ngini = 0.48\nsamples = 18\nvalue = [7, 11]\nclass = non functional", fillcolor="#399de55d"] ;
120 -> 386 ;
387 [label="gps_height <= 0.35\ngini = 0.22\nsamples = 8\nvalue = [1, 7]\nclass = non functional", fillcolor="#399de5db"] ;
386 -> 387 ;
388 [label="gini = 0.0\nsamples = 6\nvalue = [0, 6]\nclass = non functional", fillcolor="#399de5ff"] ;
387 -> 388 ;
389 [label="permit_gravity <= 0.5\ngini = 0.5\nsamples = 2\nvalue = [1, 1]\nclass = functional", fillcolor="#e5813900"] ;
387 -> 389 ;
390 [label="gini = 0.0\nsamples = 1\nvalue = [0, 1]\nclass = non functional", fillcolor="#399de5ff"] ;
389 -> 390 ;
391 [label="gini = 0.0\nsamples = 1\nvalue = [1, 0]\nclass = functional", fillcolor="#e58139ff"] ;
389 -> 391 ;
392 [label="population <= 0.01\ngini = 0.48\nsamples = 10\nvalue = [6, 4]\nclass = functional", fillcolor="#e5813955"] ;
386 -> 392 ;
393 [label="gini = 0.0\nsamples = 5\nvalue = [5, 0]\nclass = functional", fillcolor="#e58139ff"] ;
392 -> 393 ;
394 [label="gps_height <= 0.37\ngini = 0.32\nsamples = 5\nvalue = [1, 4]\nclass = non functional", fillcolor="#399de5bf"] ;
392 -> 394 ;
395 [label="gini = 0.0\nsamples = 4\nvalue = [0, 4]\nclass = non functional", fillcolor="#399de5ff"] ;
394 -> 395 ;
396 [label="gini = 0.0\nsamples = 1\nvalue = [1, 0]\nclass = functional", fillcolor="#e58139ff"] ;
394 -> 396 ;
397 [label="gini = 0.0\nsamples = 2\nvalue = [2, 0]\nclass = functional", fillcolor="#e58139ff"] ;
119 -> 397 ;
398 [label="population <= 0.01\ngini = 0.38\nsamples = 4\nvalue = [3, 1]\nclass = functional", fillcolor="#e58139aa"] ;
118 -> 398 ;
399 [label="gini = 0.0\nsamples = 3\nvalue = [3, 0]\nclass = functional", fillcolor="#e58139ff"] ;
398 -> 399 ;
400 [label="gini = 0.0\nsamples = 1\nvalue = [0, 1]\nclass = non functional", fillcolor="#399de5ff"] ;
398 -> 400 ;
401 [label="district_code_Ulanga <= 0.5\ngini = 0.38\nsamples = 4\nvalue = [3, 1]\nclass = functional", fillcolor="#e58139aa"] ;
117 -> 401 ;
402 [label="gini = 0.0\nsamples = 3\nvalue = [3, 0]\nclass = functional", fillcolor="#e58139ff"] ;
401 -> 402 ;
403 [label="gini = 0.0\nsamples = 1\nvalue = [0, 1]\nclass = non functional", fillcolor="#399de5ff"] ;
401 -> 403 ;
404 [label="subvillage_Kati <= 0.5\ngini = 0.32\nsamples = 5\nvalue = [4, 1]\nclass = functional", fillcolor="#e58139bf"] ;
116 -> 404 ;
405 [label="gini = 0.0\nsamples = 3\nvalue = [3, 0]\nclass = functional", fillcolor="#e58139ff"] ;
404 -> 405 ;
406 [label="gps_height <= 0.48\ngini = 0.5\nsamples = 2\nvalue = [1, 1]\nclass = functional", fillcolor="#e5813900"] ;
404 -> 406 ;
407 [label="gini = 0.0\nsamples = 1\nvalue = [1, 0]\nclass = functional", fillcolor="#e58139ff"] ;
406 -> 407 ;
408 [label="gini = 0.0\nsamples = 1\nvalue = [0, 1]\nclass = non functional", fillcolor="#399de5ff"] ;
406 -> 408 ;
409 [label="gini = 0.0\nsamples = 3\nvalue = [3, 0]\nclass = functional", fillcolor="#e58139ff"] ;
115 -> 409 ;
410 [label="gps_height <= 0.38\ngini = 0.49\nsamples = 25\nvalue = [11, 14]\nclass = non functional", fillcolor="#399de537"] ;
114 -> 410 ;
411 [label="subvillage_Marurani Kati <= 0.5\ngini = 0.46\nsamples = 22\nvalue = [8, 14]\nclass = non functional", fillcolor="#399de56d"] ;
410 -> 411 ;
412 [label="population <= 0.0\ngini = 0.28\nsamples = 12\nvalue = [2, 10]\nclass = non functional", fillcolor="#399de5cc"] ;
411 -> 412 ;
413 [label="gini = 0.0\nsamples = 4\nvalue = [0, 4]\nclass = non functional", fillcolor="#399de5ff"] ;
412 -> 413 ;
414 [label="gps_height <= 0.37\ngini = 0.38\nsamples = 8\nvalue = [2, 6]\nclass = non functional", fillcolor="#399de5aa"] ;
412 -> 414 ;
415 [label="gini = 0.0\nsamples = 3\nvalue = [0, 3]\nclass = non functional", fillcolor="#399de5ff"] ;
414 -> 415 ;
416 [label="gps_height <= 0.38\ngini = 0.48\nsamples = 5\nvalue = [2, 3]\nclass = non functional", fillcolor="#399de555"] ;
414 -> 416 ;
417 [label="construction_year <= 2011.5\ngini = 0.44\nsamples = 3\nvalue = [2, 1]\nclass = functional", fillcolor="#e581397f"] ;
416 -> 417 ;
418 [label="gini = 0.0\nsamples = 2\nvalue = [2, 0]\nclass = functional", fillcolor="#e58139ff"] ;
417 -> 418 ;
419 [label="gini = 0.0\nsamples = 1\nvalue = [0, 1]\nclass = non functional", fillcolor="#399de5ff"] ;
417 -> 419 ;
420 [label="gini = 0.0\nsamples = 2\nvalue = [0, 2]\nclass = non functional", fillcolor="#399de5ff"] ;
416 -> 420 ;
421 [label="gps_height <= 0.37\ngini = 0.48\nsamples = 10\nvalue = [6, 4]\nclass = functional", fillcolor="#e5813955"] ;
411 -> 421 ;
422 [label="permit_gravity <= 0.5\ngini = 0.32\nsamples = 5\nvalue = [4, 1]\nclass = functional", fillcolor="#e58139bf"] ;
421 -> 422 ;
423 [label="gini = 0.0\nsamples = 1\nvalue = [0, 1]\nclass = non functional", fillcolor="#399de5ff"] ;
422 -> 423 ;
424 [label="gini = 0.0\nsamples = 4\nvalue = [4, 0]\nclass = functional", fillcolor="#e58139ff"] ;
422 -> 424 ;
425 [label="gps_height <= 0.38\ngini = 0.48\nsamples = 5\nvalue = [2, 3]\nclass = non functional", fillcolor="#399de555"] ;
421 -> 425 ;
426 [label="gini = 0.0\nsamples = 2\nvalue = [0, 2]\nclass = non functional", fillcolor="#399de5ff"] ;
425 -> 426 ;
427 [label="gps_height <= 0.38\ngini = 0.44\nsamples = 3\nvalue = [2, 1]\nclass = functional", fillcolor="#e581397f"] ;
425 -> 427 ;
428 [label="gini = 0.5\nsamples = 2\nvalue = [1, 1]\nclass = functional", fillcolor="#e5813900"] ;
427 -> 428 ;
429 [label="gini = 0.0\nsamples = 1\nvalue = [1, 0]\nclass = functional", fillcolor="#e58139ff"] ;
427 -> 429 ;
430 [label="gini = 0.0\nsamples = 3\nvalue = [3, 0]\nclass = functional", fillcolor="#e58139ff"] ;
410 -> 430 ;
431 [label="population <= 0.01\ngini = 0.41\nsamples = 7\nvalue = [5, 2]\nclass = functional", fillcolor="#e5813999"] ;
113 -> 431 ;
432 [label="gini = 0.0\nsamples = 5\nvalue = [5, 0]\nclass = functional", fillcolor="#e58139ff"] ;
431 -> 432 ;
433 [label="gini = 0.0\nsamples = 2\nvalue = [0, 2]\nclass = non functional", fillcolor="#399de5ff"] ;
431 -> 433 ;
434 [label="population <= 0.02\ngini = 0.43\nsamples = 107\nvalue = [34, 73]\nclass = non functional", fillcolor="#399de588"] ;
112 -> 434 ;
435 [label="funder_Wsdp <= 0.5\ngini = 0.38\nsamples = 88\nvalue = [22, 66]\nclass = non functional", fillcolor="#399de5aa"] ;
434 -> 435 ;
436 [label="permit_other - swn 81 <= 0.5\ngini = 0.35\nsamples = 84\nvalue = [19, 65]\nclass = non functional", fillcolor="#399de5b4"] ;
435 -> 436 ;
437 [label="permit_nira/tanira <= 0.5\ngini = 0.34\nsamples = 83\nvalue = [18, 65]\nclass = non functional", fillcolor="#399de5b8"] ;
436 -> 437 ;
438 [label="subvillage_Center <= 0.5\ngini = 0.32\nsamples = 80\nvalue = [16, 64]\nclass = non functional", fillcolor="#399de5bf"] ;
437 -> 438 ;
439 [label="gps_height <= 0.6\ngini = 0.3\nsamples = 77\nvalue = [14, 63]\nclass = non functional", fillcolor="#399de5c6"] ;
438 -> 439 ;
440 [label="permit_other <= 0.5\ngini = 0.27\nsamples = 74\nvalue = [12, 62]\nclass = non functional", fillcolor="#399de5ce"] ;
439 -> 440 ;
441 [label="funder_Anglican Church <= 0.5\ngini = 0.26\nsamples = 73\nvalue = [11, 62]\nclass = non functional", fillcolor="#399de5d2"] ;
440 -> 441 ;
442 [label="management_group_salty <= 0.5\ngini = 0.24\nsamples = 72\nvalue = [10, 62]\nclass = non functional", fillcolor="#399de5d6"] ;
441 -> 442 ;
443 [label="installer_other <= 0.5\ngini = 0.3\nsamples = 48\nvalue = [9, 39]\nclass = non functional", fillcolor="#399de5c4"] ;
442 -> 443 ;
444 [label="population <= 0.02\ngini = 0.16\nsamples = 23\nvalue = [2, 21]\nclass = non functional", fillcolor="#399de5e7"] ;
443 -> 444 ;
445 [label="gps_height <= 0.51\ngini = 0.09\nsamples = 21\nvalue = [1, 20]\nclass = non functional", fillcolor="#399de5f2"] ;
444 -> 445 ;
446 [label="gini = 0.0\nsamples = 17\nvalue = [0, 17]\nclass = non functional", fillcolor="#399de5ff"] ;
445 -> 446 ;
447 [label="gps_height <= 0.51\ngini = 0.38\nsamples = 4\nvalue = [1, 3]\nclass = non functional", fillcolor="#399de5aa"] ;
445 -> 447 ;
448 [label="gini = 0.0\nsamples = 1\nvalue = [1, 0]\nclass = functional", fillcolor="#e58139ff"] ;
447 -> 448 ;
449 [label="gini = 0.0\nsamples = 3\nvalue = [0, 3]\nclass = non functional", fillcolor="#399de5ff"] ;
447 -> 449 ;
450 [label="water_quality_insufficient <= 0.5\ngini = 0.5\nsamples = 2\nvalue = [1, 1]\nclass = functional", fillcolor="#e5813900"] ;
444 -> 450 ;
451 [label="gini = 0.0\nsamples = 1\nvalue = [1, 0]\nclass = functional", fillcolor="#e58139ff"] ;
450 -> 451 ;
452 [label="gini = 0.0\nsamples = 1\nvalue = [0, 1]\nclass = non functional", fillcolor="#399de5ff"] ;
450 -> 452 ;
453 [label="length_operation <= 0.16\ngini = 0.4\nsamples = 25\nvalue = [7, 18]\nclass = non functional", fillcolor="#399de59c"] ;
443 -> 453 ;
454 [label="funder_World Bank <= 0.5\ngini = 0.27\nsamples = 19\nvalue = [3, 16]\nclass = non functional", fillcolor="#399de5cf"] ;
453 -> 454 ;
455 [label="public_meeting_VWC <= 0.5\ngini = 0.2\nsamples = 18\nvalue = [2, 16]\nclass = non functional", fillcolor="#399de5df"] ;
454 -> 455 ;
456 [label="gini = 0.0\nsamples = 12\nvalue = [0, 12]\nclass = non functional", fillcolor="#399de5ff"] ;
455 -> 456 ;
457 [label="region_and_code_0 <= 0.5\ngini = 0.44\nsamples = 6\nvalue = [2, 4]\nclass = non functional", fillcolor="#399de57f"] ;
455 -> 457 ;
458 [label="gini = 0.0\nsamples = 3\nvalue = [0, 3]\nclass = non functional", fillcolor="#399de5ff"] ;
457 -> 458 ;
459 [label="district_code_Musoma Rural <= 0.5\ngini = 0.44\nsamples = 3\nvalue = [2, 1]\nclass = functional", fillcolor="#e581397f"] ;
457 -> 459 ;
460 [label="gini = 0.0\nsamples = 1\nvalue = [0, 1]\nclass = non functional", fillcolor="#399de5ff"] ;
459 -> 460 ;
461 [label="gini = 0.0\nsamples = 2\nvalue = [2, 0]\nclass = functional", fillcolor="#e58139ff"] ;
459 -> 461 ;
462 [label="gini = 0.0\nsamples = 1\nvalue = [1, 0]\nclass = functional", fillcolor="#e58139ff"] ;
454 -> 462 ;
463 [label="scheme_management_True <= 0.5\ngini = 0.44\nsamples = 6\nvalue = [4, 2]\nclass = functional", fillcolor="#e581397f"] ;
453 -> 463 ;
464 [label="population <= 0.01\ngini = 0.44\nsamples = 3\nvalue = [1, 2]\nclass = non functional", fillcolor="#399de57f"] ;
463 -> 464 ;
465 [label="gini = 0.0\nsamples = 2\nvalue = [0, 2]\nclass = non functional", fillcolor="#399de5ff"] ;
464 -> 465 ;
466 [label="gini = 0.0\nsamples = 1\nvalue = [1, 0]\nclass = functional", fillcolor="#e58139ff"] ;
464 -> 466 ;
467 [label="gini = 0.0\nsamples = 3\nvalue = [3, 0]\nclass = functional", fillcolor="#e58139ff"] ;
463 -> 467 ;
468 [label="funder_Government Of Tanzania <= 0.5\ngini = 0.08\nsamples = 24\nvalue = [1, 23]\nclass = non functional", fillcolor="#399de5f4"] ;
442 -> 468 ;
469 [label="gini = 0.0\nsamples = 21\nvalue = [0, 21]\nclass = non functional", fillcolor="#399de5ff"] ;
468 -> 469 ;
470 [label="permit_india mark ii <= 0.5\ngini = 0.44\nsamples = 3\nvalue = [1, 2]\nclass = non functional", fillcolor="#399de57f"] ;
468 -> 470 ;
471 [label="gini = 0.0\nsamples = 1\nvalue = [1, 0]\nclass = functional", fillcolor="#e58139ff"] ;
470 -> 471 ;
472 [label="gini = 0.0\nsamples = 2\nvalue = [0, 2]\nclass = non functional", fillcolor="#399de5ff"] ;
470 -> 472 ;
473 [label="gini = 0.0\nsamples = 1\nvalue = [1, 0]\nclass = functional", fillcolor="#e58139ff"] ;
441 -> 473 ;
474 [label="gini = 0.0\nsamples = 1\nvalue = [1, 0]\nclass = functional", fillcolor="#e58139ff"] ;
440 -> 474 ;
475 [label="gps_height <= 0.64\ngini = 0.44\nsamples = 3\nvalue = [2, 1]\nclass = functional", fillcolor="#e581397f"] ;
439 -> 475 ;
476 [label="gini = 0.0\nsamples = 2\nvalue = [2, 0]\nclass = functional", fillcolor="#e58139ff"] ;
475 -> 476 ;
477 [label="gini = 0.0\nsamples = 1\nvalue = [0, 1]\nclass = non functional", fillcolor="#399de5ff"] ;
475 -> 477 ;
478 [label="scheme_management_False <= 0.5\ngini = 0.44\nsamples = 3\nvalue = [2, 1]\nclass = functional", fillcolor="#e581397f"] ;
438 -> 478 ;
479 [label="gini = 0.0\nsamples = 2\nvalue = [2, 0]\nclass = functional", fillcolor="#e58139ff"] ;
478 -> 479 ;
480 [label="gini = 0.0\nsamples = 1\nvalue = [0, 1]\nclass = non functional", fillcolor="#399de5ff"] ;
478 -> 480 ;
481 [label="gps_height <= 0.49\ngini = 0.44\nsamples = 3\nvalue = [2, 1]\nclass = functional", fillcolor="#e581397f"] ;
437 -> 481 ;
482 [label="gini = 0.0\nsamples = 2\nvalue = [2, 0]\nclass = functional", fillcolor="#e58139ff"] ;
481 -> 482 ;
483 [label="gini = 0.0\nsamples = 1\nvalue = [0, 1]\nclass = non functional", fillcolor="#399de5ff"] ;
481 -> 483 ;
484 [label="gini = 0.0\nsamples = 1\nvalue = [1, 0]\nclass = functional", fillcolor="#e58139ff"] ;
436 -> 484 ;
485 [label="region_and_code_1 <= 0.5\ngini = 0.38\nsamples = 4\nvalue = [3, 1]\nclass = functional", fillcolor="#e58139aa"] ;
435 -> 485 ;
486 [label="gini = 0.0\nsamples = 1\nvalue = [0, 1]\nclass = non functional", fillcolor="#399de5ff"] ;
485 -> 486 ;
487 [label="gini = 0.0\nsamples = 3\nvalue = [3, 0]\nclass = functional", fillcolor="#e58139ff"] ;
485 -> 487 ;
488 [label="gps_height <= 0.48\ngini = 0.47\nsamples = 19\nvalue = [12, 7]\nclass = functional", fillcolor="#e581396a"] ;
434 -> 488 ;
489 [label="management_unknown <= 0.5\ngini = 0.49\nsamples = 12\nvalue = [5, 7]\nclass = non functional", fillcolor="#399de549"] ;
488 -> 489 ;
490 [label="gini = 0.0\nsamples = 3\nvalue = [3, 0]\nclass = functional", fillcolor="#e58139ff"] ;
489 -> 490 ;
491 [label="district_code_Musoma Rural <= 0.5\ngini = 0.35\nsamples = 9\nvalue = [2, 7]\nclass = non functional", fillcolor="#399de5b6"] ;
489 -> 491 ;
492 [label="gini = 0.0\nsamples = 6\nvalue = [0, 6]\nclass = non functional", fillcolor="#399de5ff"] ;
491 -> 492 ;
493 [label="gps_height <= 0.48\ngini = 0.44\nsamples = 3\nvalue = [2, 1]\nclass = functional", fillcolor="#e581397f"] ;
491 -> 493 ;
494 [label="gini = 0.0\nsamples = 2\nvalue = [2, 0]\nclass = functional", fillcolor="#e58139ff"] ;
493 -> 494 ;
495 [label="gini = 0.0\nsamples = 1\nvalue = [0, 1]\nclass = non functional", fillcolor="#399de5ff"] ;
493 -> 495 ;
496 [label="gini = 0.0\nsamples = 7\nvalue = [7, 0]\nclass = functional", fillcolor="#e58139ff"] ;
488 -> 496 ;
497 [label="gini = 0.0\nsamples = 4\nvalue = [4, 0]\nclass = functional", fillcolor="#e58139ff"] ;
111 -> 497 ;
498 [label="water_quality_enough <= 0.5\ngini = 0.14\nsamples = 387\nvalue = [29, 358]\nclass = non functional", fillcolor="#399de5ea"] ;
12 -> 498 ;
499 [label="funder_District Council <= 0.5\ngini = 0.3\nsamples = 72\nvalue = [13, 59]\nclass = non functional", fillcolor="#399de5c7"] ;
498 -> 499 ;
500 [label="lga_Mvomero <= 0.5\ngini = 0.28\nsamples = 71\nvalue = [12, 59]\nclass = non functional", fillcolor="#399de5cb"] ;
499 -> 500 ;
501 [label="lga_Kiromo <= 0.5\ngini = 0.24\nsamples = 65\nvalue = [9, 56]\nclass = non functional", fillcolor="#399de5d6"] ;
500 -> 501 ;
502 [label="length_operation <= 0.14\ngini = 0.22\nsamples = 64\nvalue = [8, 56]\nclass = non functional", fillcolor="#399de5db"] ;
501 -> 502 ;
503 [label="quantity_hand pump <= 0.5\ngini = 0.3\nsamples = 43\nvalue = [8, 35]\nclass = non functional", fillcolor="#399de5c5"] ;
502 -> 503 ;
504 [label="district_code_Pangani <= 0.5\ngini = 0.28\nsamples = 42\nvalue = [7, 35]\nclass = non functional", fillcolor="#399de5cc"] ;
503 -> 504 ;
505 [label="management_monthly <= 0.5\ngini = 0.25\nsamples = 41\nvalue = [6, 35]\nclass = non functional", fillcolor="#399de5d3"] ;
504 -> 505 ;
506 [label="water_quality_seasonal <= 0.5\ngini = 0.09\nsamples = 20\nvalue = [1, 19]\nclass = non functional", fillcolor="#399de5f2"] ;
505 -> 506 ;
507 [label="gini = 0.0\nsamples = 17\nvalue = [0, 17]\nclass = non functional", fillcolor="#399de5ff"] ;
506 -> 507 ;
508 [label="ward_True <= 0.5\ngini = 0.44\nsamples = 3\nvalue = [1, 2]\nclass = non functional", fillcolor="#399de57f"] ;
506 -> 508 ;
509 [label="gini = 0.0\nsamples = 2\nvalue = [0, 2]\nclass = non functional", fillcolor="#399de5ff"] ;
508 -> 509 ;
510 [label="gini = 0.0\nsamples = 1\nvalue = [1, 0]\nclass = functional", fillcolor="#e58139ff"] ;
508 -> 510 ;
511 [label="permit_gravity <= 0.5\ngini = 0.36\nsamples = 21\nvalue = [5, 16]\nclass = non functional", fillcolor="#399de5af"] ;
505 -> 511 ;
512 [label="population <= 0.0\ngini = 0.42\nsamples = 17\nvalue = [5, 12]\nclass = non functional", fillcolor="#399de595"] ;
511 -> 512 ;
513 [label="gini = 0.0\nsamples = 1\nvalue = [1, 0]\nclass = functional", fillcolor="#e58139ff"] ;
512 -> 513 ;
514 [label="gps_height <= 0.07\ngini = 0.38\nsamples = 16\nvalue = [4, 12]\nclass = non functional", fillcolor="#399de5aa"] ;
512 -> 514 ;
515 [label="gini = 0.0\nsamples = 2\nvalue = [0, 2]\nclass = non functional", fillcolor="#399de5ff"] ;
514 -> 515 ;
516 [label="gps_height <= 0.07\ngini = 0.41\nsamples = 14\nvalue = [4, 10]\nclass = non functional", fillcolor="#399de599"] ;
514 -> 516 ;
517 [label="population <= 0.0\ngini = 0.49\nsamples = 7\nvalue = [3, 4]\nclass = non functional", fillcolor="#399de540"] ;
516 -> 517 ;
518 [label="gps_height <= 0.07\ngini = 0.48\nsamples = 5\nvalue = [3, 2]\nclass = functional", fillcolor="#e5813955"] ;
517 -> 518 ;
519 [label="gps_height <= 0.07\ngini = 0.5\nsamples = 4\nvalue = [2, 2]\nclass = functional", fillcolor="#e5813900"] ;
518 -> 519 ;
520 [label="gps_height <= 0.07\ngini = 0.44\nsamples = 3\nvalue = [2, 1]\nclass = functional", fillcolor="#e581397f"] ;
519 -> 520 ;
521 [label="gini = 0.5\nsamples = 2\nvalue = [1, 1]\nclass = functional", fillcolor="#e5813900"] ;
520 -> 521 ;
522 [label="gini = 0.0\nsamples = 1\nvalue = [1, 0]\nclass = functional", fillcolor="#e58139ff"] ;
520 -> 522 ;
523 [label="gini = 0.0\nsamples = 1\nvalue = [0, 1]\nclass = non functional", fillcolor="#399de5ff"] ;
519 -> 523 ;
524 [label="gini = 0.0\nsamples = 1\nvalue = [1, 0]\nclass = functional", fillcolor="#e58139ff"] ;
518 -> 524 ;
525 [label="gini = 0.0\nsamples = 2\nvalue = [0, 2]\nclass = non functional", fillcolor="#399de5ff"] ;
517 -> 525 ;
526 [label="population <= 0.0\ngini = 0.24\nsamples = 7\nvalue = [1, 6]\nclass = non functional", fillcolor="#399de5d4"] ;
516 -> 526 ;
527 [label="gini = 0.0\nsamples = 5\nvalue = [0, 5]\nclass = non functional", fillcolor="#399de5ff"] ;
526 -> 527 ;
528 [label="length_operation <= 0.13\ngini = 0.5\nsamples = 2\nvalue = [1, 1]\nclass = functional", fillcolor="#e5813900"] ;
526 -> 528 ;
529 [label="gini = 0.0\nsamples = 1\nvalue = [0, 1]\nclass = non functional", fillcolor="#399de5ff"] ;
528 -> 529 ;
530 [label="gini = 0.0\nsamples = 1\nvalue = [1, 0]\nclass = functional", fillcolor="#e58139ff"] ;
528 -> 530 ;
531 [label="gini = 0.0\nsamples = 4\nvalue = [0, 4]\nclass = non functional", fillcolor="#399de5ff"] ;
511 -> 531 ;
532 [label="gini = 0.0\nsamples = 1\nvalue = [1, 0]\nclass = functional", fillcolor="#e58139ff"] ;
504 -> 532 ;
533 [label="gini = 0.0\nsamples = 1\nvalue = [1, 0]\nclass = functional", fillcolor="#e58139ff"] ;
503 -> 533 ;
534 [label="gini = 0.0\nsamples = 21\nvalue = [0, 21]\nclass = non functional", fillcolor="#399de5ff"] ;
502 -> 534 ;
535 [label="gini = 0.0\nsamples = 1\nvalue = [1, 0]\nclass = functional", fillcolor="#e58139ff"] ;
501 -> 535 ;
536 [label="gps_height <= 0.16\ngini = 0.5\nsamples = 6\nvalue = [3, 3]\nclass = functional", fillcolor="#e5813900"] ;
500 -> 536 ;
537 [label="gini = 0.0\nsamples = 1\nvalue = [1, 0]\nclass = functional", fillcolor="#e58139ff"] ;
536 -> 537 ;
538 [label="subvillage_other <= 0.5\ngini = 0.48\nsamples = 5\nvalue = [2, 3]\nclass = non functional", fillcolor="#399de555"] ;
536 -> 538 ;
539 [label="gini = 0.0\nsamples = 1\nvalue = [0, 1]\nclass = non functional", fillcolor="#399de5ff"] ;
538 -> 539 ;
540 [label="gps_height <= 0.16\ngini = 0.5\nsamples = 4\nvalue = [2, 2]\nclass = functional", fillcolor="#e5813900"] ;
538 -> 540 ;
541 [label="gini = 0.0\nsamples = 1\nvalue = [1, 0]\nclass = functional", fillcolor="#e58139ff"] ;
540 -> 541 ;
542 [label="gps_height <= 0.17\ngini = 0.44\nsamples = 3\nvalue = [1, 2]\nclass = non functional", fillcolor="#399de57f"] ;
540 -> 542 ;
543 [label="gini = 0.0\nsamples = 1\nvalue = [0, 1]\nclass = non functional", fillcolor="#399de5ff"] ;
542 -> 543 ;
544 [label="gps_height <= 0.17\ngini = 0.5\nsamples = 2\nvalue = [1, 1]\nclass = functional", fillcolor="#e5813900"] ;
542 -> 544 ;
545 [label="gini = 0.0\nsamples = 1\nvalue = [1, 0]\nclass = functional", fillcolor="#e58139ff"] ;
544 -> 545 ;
546 [label="gini = 0.0\nsamples = 1\nvalue = [0, 1]\nclass = non functional", fillcolor="#399de5ff"] ;
544 -> 546 ;
547 [label="gini = 0.0\nsamples = 1\nvalue = [1, 0]\nclass = functional", fillcolor="#e58139ff"] ;
499 -> 547 ;
548 [label="funder_Plan Int <= 0.5\ngini = 0.1\nsamples = 315\nvalue = [16, 299]\nclass = non functional", fillcolor="#399de5f1"] ;
498 -> 548 ;
549 [label="lga_Pangani Mashariki <= 0.5\ngini = 0.09\nsamples = 314\nvalue = [15, 299]\nclass = non functional", fillcolor="#399de5f2"] ;
548 -> 549 ;
550 [label="lga_Mbwewe <= 0.5\ngini = 0.09\nsamples = 313\nvalue = [14, 299]\nclass = non functional", fillcolor="#399de5f3"] ;
549 -> 550 ;
551 [label="installer_Private <= 0.5\ngini = 0.08\nsamples = 307\nvalue = [12, 295]\nclass = non functional", fillcolor="#399de5f5"] ;
550 -> 551 ;
552 [label="district_code_Mpanda <= 0.5\ngini = 0.07\nsamples = 305\nvalue = [11, 294]\nclass = non functional", fillcolor="#399de5f5"] ;
551 -> 552 ;
553 [label="construction_year <= 2009.5\ngini = 0.06\nsamples = 303\nvalue = [10, 293]\nclass = non functional", fillcolor="#399de5f6"] ;
552 -> 553 ;
554 [label="ward_False <= 0.5\ngini = 0.14\nsamples = 96\nvalue = [7, 89]\nclass = non functional", fillcolor="#399de5eb"] ;
553 -> 554 ;
555 [label="permit_ksb <= 0.5\ngini = 0.12\nsamples = 95\nvalue = [6, 89]\nclass = non functional", fillcolor="#399de5ee"] ;
554 -> 555 ;
556 [label="gini = 0.0\nsamples = 41\nvalue = [0, 41]\nclass = non functional", fillcolor="#399de5ff"] ;
555 -> 556 ;
557 [label="population <= 0.0\ngini = 0.2\nsamples = 54\nvalue = [6, 48]\nclass = non functional", fillcolor="#399de5df"] ;
555 -> 557 ;
558 [label="funder_Private Individual <= 0.5\ngini = 0.32\nsamples = 25\nvalue = [5, 20]\nclass = non functional", fillcolor="#399de5bf"] ;
557 -> 558 ;
559 [label="gini = 0.0\nsamples = 1\nvalue = [1, 0]\nclass = functional", fillcolor="#e58139ff"] ;
558 -> 559 ;
560 [label="gps_height <= 0.09\ngini = 0.28\nsamples = 24\nvalue = [4, 20]\nclass = non functional", fillcolor="#399de5cc"] ;
558 -> 560 ;
561 [label="population <= 0.0\ngini = 0.44\nsamples = 9\nvalue = [3, 6]\nclass = non functional", fillcolor="#399de57f"] ;
560 -> 561 ;
562 [label="population <= 0.0\ngini = 0.5\nsamples = 6\nvalue = [3, 3]\nclass = functional", fillcolor="#e5813900"] ;
561 -> 562 ;
563 [label="gini = 0.0\nsamples = 2\nvalue = [0, 2]\nclass = non functional", fillcolor="#399de5ff"] ;
562 -> 563 ;
564 [label="lga_Zinga/Ikerege <= 0.5\ngini = 0.38\nsamples = 4\nvalue = [3, 1]\nclass = functional", fillcolor="#e58139aa"] ;
562 -> 564 ;
565 [label="gini = 0.0\nsamples = 3\nvalue = [3, 0]\nclass = functional", fillcolor="#e58139ff"] ;
564 -> 565 ;
566 [label="gini = 0.0\nsamples = 1\nvalue = [0, 1]\nclass = non functional", fillcolor="#399de5ff"] ;
564 -> 566 ;
567 [label="gini = 0.0\nsamples = 3\nvalue = [0, 3]\nclass = non functional", fillcolor="#399de5ff"] ;
561 -> 567 ;
568 [label="population <= 0.0\ngini = 0.12\nsamples = 15\nvalue = [1, 14]\nclass = non functional", fillcolor="#399de5ed"] ;
560 -> 568 ;
569 [label="gini = 0.0\nsamples = 11\nvalue = [0, 11]\nclass = non functional", fillcolor="#399de5ff"] ;
568 -> 569 ;
570 [label="construction_year <= 2007.5\ngini = 0.38\nsamples = 4\nvalue = [1, 3]\nclass = non functional", fillcolor="#399de5aa"] ;
568 -> 570 ;
571 [label="region_and_code_2 <= 0.5\ngini = 0.5\nsamples = 2\nvalue = [1, 1]\nclass = functional", fillcolor="#e5813900"] ;
570 -> 571 ;
572 [label="gini = 0.0\nsamples = 1\nvalue = [1, 0]\nclass = functional", fillcolor="#e58139ff"] ;
571 -> 572 ;
573 [label="gini = 0.0\nsamples = 1\nvalue = [0, 1]\nclass = non functional", fillcolor="#399de5ff"] ;
571 -> 573 ;
574 [label="gini = 0.0\nsamples = 2\nvalue = [0, 2]\nclass = non functional", fillcolor="#399de5ff"] ;
570 -> 574 ;
575 [label="lga_other <= 0.5\ngini = 0.07\nsamples = 29\nvalue = [1, 28]\nclass = non functional", fillcolor="#399de5f6"] ;
557 -> 575 ;
576 [label="gini = 0.0\nsamples = 23\nvalue = [0, 23]\nclass = non functional", fillcolor="#399de5ff"] ;
575 -> 576 ;
577 [label="gps_height <= 0.03\ngini = 0.28\nsamples = 6\nvalue = [1, 5]\nclass = non functional", fillcolor="#399de5cc"] ;
575 -> 577 ;
578 [label="gini = 0.0\nsamples = 1\nvalue = [1, 0]\nclass = functional", fillcolor="#e58139ff"] ;
577 -> 578 ;
579 [label="gini = 0.0\nsamples = 5\nvalue = [0, 5]\nclass = non functional", fillcolor="#399de5ff"] ;
577 -> 579 ;
580 [label="gini = 0.0\nsamples = 1\nvalue = [1, 0]\nclass = functional", fillcolor="#e58139ff"] ;
554 -> 580 ;
581 [label="permit_afridev <= 0.5\ngini = 0.03\nsamples = 207\nvalue = [3, 204]\nclass = non functional", fillcolor="#399de5fb"] ;
553 -> 581 ;
582 [label="management_group_salty abandoned <= 0.5\ngini = 0.02\nsamples = 199\nvalue = [2, 197]\nclass = non functional", fillcolor="#399de5fc"] ;
581 -> 582 ;
583 [label="lga_Chalinze <= 0.5\ngini = 0.01\nsamples = 180\nvalue = [1, 179]\nclass = non functional", fillcolor="#399de5fe"] ;
582 -> 583 ;
584 [label="gini = 0.0\nsamples = 151\nvalue = [0, 151]\nclass = non functional", fillcolor="#399de5ff"] ;
583 -> 584 ;
585 [label="gps_height <= 0.1\ngini = 0.07\nsamples = 29\nvalue = [1, 28]\nclass = non functional", fillcolor="#399de5f6"] ;
583 -> 585 ;
586 [label="gini = 0.0\nsamples = 24\nvalue = [0, 24]\nclass = non functional", fillcolor="#399de5ff"] ;
585 -> 586 ;
587 [label="gps_height <= 0.1\ngini = 0.32\nsamples = 5\nvalue = [1, 4]\nclass = non functional", fillcolor="#399de5bf"] ;
585 -> 587 ;
588 [label="gini = 0.0\nsamples = 1\nvalue = [1, 0]\nclass = functional", fillcolor="#e58139ff"] ;
587 -> 588 ;
589 [label="gini = 0.0\nsamples = 4\nvalue = [0, 4]\nclass = non functional", fillcolor="#399de5ff"] ;
587 -> 589 ;
590 [label="lga_other <= 0.5\ngini = 0.1\nsamples = 19\nvalue = [1, 18]\nclass = non functional", fillcolor="#399de5f1"] ;
582 -> 590 ;
591 [label="gini = 0.0\nsamples = 17\nvalue = [0, 17]\nclass = non functional", fillcolor="#399de5ff"] ;
590 -> 591 ;
592 [label="population <= 0.01\ngini = 0.5\nsamples = 2\nvalue = [1, 1]\nclass = functional", fillcolor="#e5813900"] ;
590 -> 592 ;
593 [label="gini = 0.0\nsamples = 1\nvalue = [0, 1]\nclass = non functional", fillcolor="#399de5ff"] ;
592 -> 593 ;
594 [label="gini = 0.0\nsamples = 1\nvalue = [1, 0]\nclass = functional", fillcolor="#e58139ff"] ;
592 -> 594 ;
595 [label="gps_height <= 0.03\ngini = 0.22\nsamples = 8\nvalue = [1, 7]\nclass = non functional", fillcolor="#399de5db"] ;
581 -> 595 ;
596 [label="gini = 0.0\nsamples = 1\nvalue = [1, 0]\nclass = functional", fillcolor="#e58139ff"] ;
595 -> 596 ;
597 [label="gini = 0.0\nsamples = 7\nvalue = [0, 7]\nclass = non functional", fillcolor="#399de5ff"] ;
595 -> 597 ;
598 [label="management_group_unknown <= 0.5\ngini = 0.5\nsamples = 2\nvalue = [1, 1]\nclass = functional", fillcolor="#e5813900"] ;
552 -> 598 ;
599 [label="gini = 0.0\nsamples = 1\nvalue = [1, 0]\nclass = functional", fillcolor="#e58139ff"] ;
598 -> 599 ;
600 [label="gini = 0.0\nsamples = 1\nvalue = [0, 1]\nclass = non functional", fillcolor="#399de5ff"] ;
598 -> 600 ;
601 [label="construction_year <= 2009.5\ngini = 0.5\nsamples = 2\nvalue = [1, 1]\nclass = functional", fillcolor="#e5813900"] ;
551 -> 601 ;
602 [label="gini = 0.0\nsamples = 1\nvalue = [1, 0]\nclass = functional", fillcolor="#e58139ff"] ;
601 -> 602 ;
603 [label="gini = 0.0\nsamples = 1\nvalue = [0, 1]\nclass = non functional", fillcolor="#399de5ff"] ;
601 -> 603 ;
604 [label="construction_year <= 2009.0\ngini = 0.44\nsamples = 6\nvalue = [2, 4]\nclass = non functional", fillcolor="#399de57f"] ;
550 -> 604 ;
605 [label="gps_height <= 0.15\ngini = 0.44\nsamples = 3\nvalue = [2, 1]\nclass = functional", fillcolor="#e581397f"] ;
604 -> 605 ;
606 [label="gini = 0.0\nsamples = 2\nvalue = [2, 0]\nclass = functional", fillcolor="#e58139ff"] ;
605 -> 606 ;
607 [label="gini = 0.0\nsamples = 1\nvalue = [0, 1]\nclass = non functional", fillcolor="#399de5ff"] ;
605 -> 607 ;
608 [label="gini = 0.0\nsamples = 3\nvalue = [0, 3]\nclass = non functional", fillcolor="#399de5ff"] ;
604 -> 608 ;
609 [label="gini = 0.0\nsamples = 1\nvalue = [1, 0]\nclass = functional", fillcolor="#e58139ff"] ;
549 -> 609 ;
610 [label="gini = 0.0\nsamples = 1\nvalue = [1, 0]\nclass = functional", fillcolor="#e58139ff"] ;
548 -> 610 ;
611 [label="population <= 0.0\ngini = 0.28\nsamples = 12\nvalue = [10, 2]\nclass = functional", fillcolor="#e58139cc"] ;
11 -> 611 ;
612 [label="gini = 0.0\nsamples = 1\nvalue = [0, 1]\nclass = non functional", fillcolor="#399de5ff"] ;
611 -> 612 ;
613 [label="funder_Lga <= 0.5\ngini = 0.17\nsamples = 11\nvalue = [10, 1]\nclass = functional", fillcolor="#e58139e6"] ;
611 -> 613 ;
614 [label="gini = 0.0\nsamples = 7\nvalue = [7, 0]\nclass = functional", fillcolor="#e58139ff"] ;
613 -> 614 ;
615 [label="installer_LGA <= 0.5\ngini = 0.38\nsamples = 4\nvalue = [3, 1]\nclass = functional", fillcolor="#e58139aa"] ;
613 -> 615 ;
616 [label="gini = 0.0\nsamples = 1\nvalue = [0, 1]\nclass = non functional", fillcolor="#399de5ff"] ;
615 -> 616 ;
617 [label="gini = 0.0\nsamples = 3\nvalue = [3, 0]\nclass = functional", fillcolor="#e58139ff"] ;
615 -> 617 ;
618 [label="gini = 0.0\nsamples = 14\nvalue = [14, 0]\nclass = functional", fillcolor="#e58139ff"] ;
10 -> 618 ;
619 [label="quality_group_borehole <= 0.5\ngini = 0.48\nsamples = 195\nvalue = [80, 115]\nclass = non functional", fillcolor="#399de54e"] ;
9 -> 619 ;
620 [label="funder_Caritas <= 0.5\ngini = 0.44\nsamples = 150\nvalue = [49, 101]\nclass = non functional", fillcolor="#399de583"] ;
619 -> 620 ;
621 [label="gps_height <= 0.5\ngini = 0.43\nsamples = 146\nvalue = [45, 101]\nclass = non functional", fillcolor="#399de58d"] ;
620 -> 621 ;
622 [label="gps_height <= 0.45\ngini = 0.3\nsamples = 75\nvalue = [14, 61]\nclass = non functional", fillcolor="#399de5c4"] ;
621 -> 622 ;
623 [label="funder_Government Of Tanzania <= 0.5\ngini = 0.49\nsamples = 21\nvalue = [9, 12]\nclass = non functional", fillcolor="#399de540"] ;
622 -> 623 ;
624 [label="construction_year_vwc <= 0.5\ngini = 0.36\nsamples = 13\nvalue = [3, 10]\nclass = non functional", fillcolor="#399de5b3"] ;
623 -> 624 ;
625 [label="lga_Matendo <= 0.5\ngini = 0.44\nsamples = 3\nvalue = [2, 1]\nclass = functional", fillcolor="#e581397f"] ;
624 -> 625 ;
626 [label="gini = 0.0\nsamples = 2\nvalue = [2, 0]\nclass = functional", fillcolor="#e58139ff"] ;
625 -> 626 ;
627 [label="gini = 0.0\nsamples = 1\nvalue = [0, 1]\nclass = non functional", fillcolor="#399de5ff"] ;
625 -> 627 ;
628 [label="population <= 0.0\ngini = 0.18\nsamples = 10\nvalue = [1, 9]\nclass = non functional", fillcolor="#399de5e3"] ;
624 -> 628 ;
629 [label="gini = 0.0\nsamples = 1\nvalue = [1, 0]\nclass = functional", fillcolor="#e58139ff"] ;
628 -> 629 ;
630 [label="gini = 0.0\nsamples = 9\nvalue = [0, 9]\nclass = non functional", fillcolor="#399de5ff"] ;
628 -> 630 ;
631 [label="length_operation <= 0.18\ngini = 0.38\nsamples = 8\nvalue = [6, 2]\nclass = functional", fillcolor="#e58139aa"] ;
623 -> 631 ;
632 [label="gini = 0.0\nsamples = 5\nvalue = [5, 0]\nclass = functional", fillcolor="#e58139ff"] ;
631 -> 632 ;
633 [label="water_quality_enough <= 0.5\ngini = 0.44\nsamples = 3\nvalue = [1, 2]\nclass = non functional", fillcolor="#399de57f"] ;
631 -> 633 ;
634 [label="gini = 0.0\nsamples = 1\nvalue = [1, 0]\nclass = functional", fillcolor="#e58139ff"] ;
633 -> 634 ;
635 [label="gini = 0.0\nsamples = 2\nvalue = [0, 2]\nclass = non functional", fillcolor="#399de5ff"] ;
633 -> 635 ;
636 [label="funder_Concern <= 0.5\ngini = 0.17\nsamples = 54\nvalue = [5, 49]\nclass = non functional", fillcolor="#399de5e5"] ;
622 -> 636 ;
637 [label="lga_Kakonko <= 0.5\ngini = 0.11\nsamples = 51\nvalue = [3, 48]\nclass = non functional", fillcolor="#399de5ef"] ;
636 -> 637 ;
638 [label="management_annually <= 0.5\ngini = 0.08\nsamples = 50\nvalue = [2, 48]\nclass = non functional", fillcolor="#399de5f4"] ;
637 -> 638 ;
639 [label="population <= 0.0\ngini = 0.04\nsamples = 48\nvalue = [1, 47]\nclass = non functional", fillcolor="#399de5fa"] ;
638 -> 639 ;
640 [label="population <= 0.0\ngini = 0.28\nsamples = 6\nvalue = [1, 5]\nclass = non functional", fillcolor="#399de5cc"] ;
639 -> 640 ;
641 [label="gini = 0.0\nsamples = 5\nvalue = [0, 5]\nclass = non functional", fillcolor="#399de5ff"] ;
640 -> 641 ;
642 [label="gini = 0.0\nsamples = 1\nvalue = [1, 0]\nclass = functional", fillcolor="#e58139ff"] ;
640 -> 642 ;
643 [label="gini = 0.0\nsamples = 42\nvalue = [0, 42]\nclass = non functional", fillcolor="#399de5ff"] ;
639 -> 643 ;
644 [label="public_meeting_VWC <= 0.5\ngini = 0.5\nsamples = 2\nvalue = [1, 1]\nclass = functional", fillcolor="#e5813900"] ;
638 -> 644 ;
645 [label="gini = 0.0\nsamples = 1\nvalue = [0, 1]\nclass = non functional", fillcolor="#399de5ff"] ;
644 -> 645 ;
646 [label="gini = 0.0\nsamples = 1\nvalue = [1, 0]\nclass = functional", fillcolor="#e58139ff"] ;
644 -> 646 ;
647 [label="gini = 0.0\nsamples = 1\nvalue = [1, 0]\nclass = functional", fillcolor="#e58139ff"] ;
637 -> 647 ;
648 [label="quality_group_spring <= 0.5\ngini = 0.44\nsamples = 3\nvalue = [2, 1]\nclass = functional", fillcolor="#e581397f"] ;
636 -> 648 ;
649 [label="gini = 0.0\nsamples = 2\nvalue = [2, 0]\nclass = functional", fillcolor="#e58139ff"] ;
648 -> 649 ;
650 [label="gini = 0.0\nsamples = 1\nvalue = [0, 1]\nclass = non functional", fillcolor="#399de5ff"] ;
648 -> 650 ;
651 [label="water_quality_insufficient <= 0.5\ngini = 0.49\nsamples = 71\nvalue = [31, 40]\nclass = non functional", fillcolor="#399de539"] ;
621 -> 651 ;
652 [label="management_monthly <= 0.5\ngini = 0.45\nsamples = 52\nvalue = [18, 34]\nclass = non functional", fillcolor="#399de578"] ;
651 -> 652 ;
653 [label="length_operation <= 0.16\ngini = 0.42\nsamples = 47\nvalue = [14, 33]\nclass = non functional", fillcolor="#399de593"] ;
652 -> 653 ;
654 [label="lga_Rugongowe <= 0.5\ngini = 0.15\nsamples = 12\nvalue = [1, 11]\nclass = non functional", fillcolor="#399de5e8"] ;
653 -> 654 ;
655 [label="gini = 0.0\nsamples = 11\nvalue = [0, 11]\nclass = non functional", fillcolor="#399de5ff"] ;
654 -> 655 ;
656 [label="gini = 0.0\nsamples = 1\nvalue = [1, 0]\nclass = functional", fillcolor="#e58139ff"] ;
654 -> 656 ;
657 [label="installer_Community <= 0.5\ngini = 0.47\nsamples = 35\nvalue = [13, 22]\nclass = non functional", fillcolor="#399de568"] ;
653 -> 657 ;
658 [label="quantity_improved spring <= 0.5\ngini = 0.42\nsamples = 27\nvalue = [8, 19]\nclass = non functional", fillcolor="#399de594"] ;
657 -> 658 ;
659 [label="funder_other <= 0.5\ngini = 0.5\nsamples = 10\nvalue = [5, 5]\nclass = functional", fillcolor="#e5813900"] ;
658 -> 659 ;
660 [label="public_meeting_VWC <= 0.5\ngini = 0.47\nsamples = 8\nvalue = [3, 5]\nclass = non functional", fillcolor="#399de566"] ;
659 -> 660 ;
661 [label="gini = 0.0\nsamples = 2\nvalue = [0, 2]\nclass = non functional", fillcolor="#399de5ff"] ;
660 -> 661 ;
662 [label="funder_Unhcr <= 0.5\ngini = 0.5\nsamples = 6\nvalue = [3, 3]\nclass = functional", fillcolor="#e5813900"] ;
660 -> 662 ;
663 [label="population <= 0.01\ngini = 0.48\nsamples = 5\nvalue = [3, 2]\nclass = functional", fillcolor="#e5813955"] ;
662 -> 663 ;
664 [label="gini = 0.0\nsamples = 1\nvalue = [0, 1]\nclass = non functional", fillcolor="#399de5ff"] ;
663 -> 664 ;
665 [label="subvillage_other <= 0.5\ngini = 0.38\nsamples = 4\nvalue = [3, 1]\nclass = functional", fillcolor="#e58139aa"] ;
663 -> 665 ;
666 [label="gini = 0.0\nsamples = 1\nvalue = [0, 1]\nclass = non functional", fillcolor="#399de5ff"] ;
665 -> 666 ;
667 [label="gini = 0.0\nsamples = 3\nvalue = [3, 0]\nclass = functional", fillcolor="#e58139ff"] ;
665 -> 667 ;
668 [label="gini = 0.0\nsamples = 1\nvalue = [0, 1]\nclass = non functional", fillcolor="#399de5ff"] ;
662 -> 668 ;
669 [label="gini = 0.0\nsamples = 2\nvalue = [2, 0]\nclass = functional", fillcolor="#e58139ff"] ;
659 -> 669 ;
670 [label="gps_height <= 0.6\ngini = 0.29\nsamples = 17\nvalue = [3, 14]\nclass = non functional", fillcolor="#399de5c8"] ;
658 -> 670 ;
671 [label="gps_height <= 0.59\ngini = 0.4\nsamples = 11\nvalue = [3, 8]\nclass = non functional", fillcolor="#399de59f"] ;
670 -> 671 ;
672 [label="gini = 0.0\nsamples = 5\nvalue = [0, 5]\nclass = non functional", fillcolor="#399de5ff"] ;
671 -> 672 ;
673 [label="population <= 0.0\ngini = 0.5\nsamples = 6\nvalue = [3, 3]\nclass = functional", fillcolor="#e5813900"] ;
671 -> 673 ;
674 [label="gini = 0.0\nsamples = 2\nvalue = [0, 2]\nclass = non functional", fillcolor="#399de5ff"] ;
673 -> 674 ;
675 [label="population <= 0.01\ngini = 0.38\nsamples = 4\nvalue = [3, 1]\nclass = functional", fillcolor="#e58139aa"] ;
673 -> 675 ;
676 [label="gini = 0.0\nsamples = 3\nvalue = [3, 0]\nclass = functional", fillcolor="#e58139ff"] ;
675 -> 676 ;
677 [label="gini = 0.0\nsamples = 1\nvalue = [0, 1]\nclass = non functional", fillcolor="#399de5ff"] ;
675 -> 677 ;
678 [label="gini = 0.0\nsamples = 6\nvalue = [0, 6]\nclass = non functional", fillcolor="#399de5ff"] ;
670 -> 678 ;
679 [label="quantity_communal standpipe <= 0.5\ngini = 0.47\nsamples = 8\nvalue = [5, 3]\nclass = functional", fillcolor="#e5813966"] ;
657 -> 679 ;
680 [label="gini = 0.0\nsamples = 4\nvalue = [4, 0]\nclass = functional", fillcolor="#e58139ff"] ;
679 -> 680 ;
681 [label="gps_height <= 0.6\ngini = 0.38\nsamples = 4\nvalue = [1, 3]\nclass = non functional", fillcolor="#399de5aa"] ;
679 -> 681 ;
682 [label="gini = 0.0\nsamples = 3\nvalue = [0, 3]\nclass = non functional", fillcolor="#399de5ff"] ;
681 -> 682 ;
683 [label="gini = 0.0\nsamples = 1\nvalue = [1, 0]\nclass = functional", fillcolor="#e58139ff"] ;
681 -> 683 ;
684 [label="population <= 0.01\ngini = 0.32\nsamples = 5\nvalue = [4, 1]\nclass = functional", fillcolor="#e58139bf"] ;
652 -> 684 ;
685 [label="gini = 0.0\nsamples = 1\nvalue = [0, 1]\nclass = non functional", fillcolor="#399de5ff"] ;
684 -> 685 ;
686 [label="gini = 0.0\nsamples = 4\nvalue = [4, 0]\nclass = functional", fillcolor="#e58139ff"] ;
684 -> 686 ;
687 [label="district_code_Kibondo <= 0.5\ngini = 0.43\nsamples = 19\nvalue = [13, 6]\nclass = functional", fillcolor="#e5813989"] ;
651 -> 687 ;
688 [label="gini = 0.0\nsamples = 2\nvalue = [0, 2]\nclass = non functional", fillcolor="#399de5ff"] ;
687 -> 688 ;
689 [label="installer_Government <= 0.5\ngini = 0.36\nsamples = 17\nvalue = [13, 4]\nclass = functional", fillcolor="#e58139b1"] ;
687 -> 689 ;
690 [label="gps_height <= 0.55\ngini = 0.3\nsamples = 16\nvalue = [13, 3]\nclass = functional", fillcolor="#e58139c4"] ;
689 -> 690 ;
691 [label="quantity_improved spring <= 0.5\ngini = 0.23\nsamples = 15\nvalue = [13, 2]\nclass = functional", fillcolor="#e58139d8"] ;
690 -> 691 ;
692 [label="funder_Unicef <= 0.5\ngini = 0.14\nsamples = 13\nvalue = [12, 1]\nclass = functional", fillcolor="#e58139ea"] ;
691 -> 692 ;
693 [label="gini = 0.0\nsamples = 9\nvalue = [9, 0]\nclass = functional", fillcolor="#e58139ff"] ;
692 -> 693 ;
694 [label="construction_year_vwc <= 0.5\ngini = 0.38\nsamples = 4\nvalue = [3, 1]\nclass = functional", fillcolor="#e58139aa"] ;
692 -> 694 ;
695 [label="gini = 0.0\nsamples = 3\nvalue = [3, 0]\nclass = functional", fillcolor="#e58139ff"] ;
694 -> 695 ;
696 [label="gini = 0.0\nsamples = 1\nvalue = [0, 1]\nclass = non functional", fillcolor="#399de5ff"] ;
694 -> 696 ;
697 [label="scheme_management_False <= 0.5\ngini = 0.5\nsamples = 2\nvalue = [1, 1]\nclass = functional", fillcolor="#e5813900"] ;
691 -> 697 ;
698 [label="gini = 0.0\nsamples = 1\nvalue = [1, 0]\nclass = functional", fillcolor="#e58139ff"] ;
697 -> 698 ;
699 [label="gini = 0.0\nsamples = 1\nvalue = [0, 1]\nclass = non functional", fillcolor="#399de5ff"] ;
697 -> 699 ;
700 [label="gini = 0.0\nsamples = 1\nvalue = [0, 1]\nclass = non functional", fillcolor="#399de5ff"] ;
690 -> 700 ;
701 [label="gini = 0.0\nsamples = 1\nvalue = [0, 1]\nclass = non functional", fillcolor="#399de5ff"] ;
689 -> 701 ;
702 [label="gini = 0.0\nsamples = 4\nvalue = [4, 0]\nclass = functional", fillcolor="#e58139ff"] ;
620 -> 702 ;
703 [label="population <= 0.02\ngini = 0.43\nsamples = 45\nvalue = [31, 14]\nclass = functional", fillcolor="#e581398c"] ;
619 -> 703 ;
704 [label="gps_height <= 0.53\ngini = 0.37\nsamples = 41\nvalue = [31, 10]\nclass = functional", fillcolor="#e58139ad"] ;
703 -> 704 ;
705 [label="population <= 0.0\ngini = 0.28\nsamples = 36\nvalue = [30, 6]\nclass = functional", fillcolor="#e58139cc"] ;
704 -> 705 ;
706 [label="gini = 0.0\nsamples = 2\nvalue = [0, 2]\nclass = non functional", fillcolor="#399de5ff"] ;
705 -> 706 ;
707 [label="funder_Wsdp <= 0.5\ngini = 0.21\nsamples = 34\nvalue = [30, 4]\nclass = functional", fillcolor="#e58139dd"] ;
705 -> 707 ;
708 [label="funder_Government Of Tanzania <= 0.5\ngini = 0.17\nsamples = 33\nvalue = [30, 3]\nclass = functional", fillcolor="#e58139e6"] ;
707 -> 708 ;
709 [label="gini = 0.0\nsamples = 20\nvalue = [20, 0]\nclass = functional", fillcolor="#e58139ff"] ;
708 -> 709 ;
710 [label="population <= 0.01\ngini = 0.36\nsamples = 13\nvalue = [10, 3]\nclass = functional", fillcolor="#e58139b3"] ;
708 -> 710 ;
711 [label="gps_height <= 0.5\ngini = 0.38\nsamples = 4\nvalue = [1, 3]\nclass = non functional", fillcolor="#399de5aa"] ;
710 -> 711 ;
712 [label="gini = 0.0\nsamples = 3\nvalue = [0, 3]\nclass = non functional", fillcolor="#399de5ff"] ;
711 -> 712 ;
713 [label="gini = 0.0\nsamples = 1\nvalue = [1, 0]\nclass = functional", fillcolor="#e58139ff"] ;
711 -> 713 ;
714 [label="gini = 0.0\nsamples = 9\nvalue = [9, 0]\nclass = functional", fillcolor="#e58139ff"] ;
710 -> 714 ;
715 [label="gini = 0.0\nsamples = 1\nvalue = [0, 1]\nclass = non functional", fillcolor="#399de5ff"] ;
707 -> 715 ;
716 [label="population <= 0.02\ngini = 0.32\nsamples = 5\nvalue = [1, 4]\nclass = non functional", fillcolor="#399de5bf"] ;
704 -> 716 ;
717 [label="gini = 0.0\nsamples = 4\nvalue = [0, 4]\nclass = non functional", fillcolor="#399de5ff"] ;
716 -> 717 ;
718 [label="gini = 0.0\nsamples = 1\nvalue = [1, 0]\nclass = functional", fillcolor="#e58139ff"] ;
716 -> 718 ;
719 [label="gini = 0.0\nsamples = 4\nvalue = [0, 4]\nclass = non functional", fillcolor="#399de5ff"] ;
703 -> 719 ;
720 [label="gps_height <= 0.25\ngini = 0.49\nsamples = 226\nvalue = [99, 127]\nclass = non functional", fillcolor="#399de538"] ;
8 -> 720 ;
721 [label="construction_year <= 2011.5\ngini = 0.4\nsamples = 32\nvalue = [23, 9]\nclass = functional", fillcolor="#e581399b"] ;
720 -> 721 ;
722 [label="subvillage_other <= 0.5\ngini = 0.49\nsamples = 16\nvalue = [7, 9]\nclass = non functional", fillcolor="#399de539"] ;
721 -> 722 ;
723 [label="gini = 0.0\nsamples = 3\nvalue = [3, 0]\nclass = functional", fillcolor="#e58139ff"] ;
722 -> 723 ;
724 [label="gps_height <= 0.25\ngini = 0.43\nsamples = 13\nvalue = [4, 9]\nclass = non functional", fillcolor="#399de58e"] ;
722 -> 724 ;
725 [label="gini = 0.0\nsamples = 7\nvalue = [0, 7]\nclass = non functional", fillcolor="#399de5ff"] ;
724 -> 725 ;
726 [label="population <= 0.0\ngini = 0.44\nsamples = 6\nvalue = [4, 2]\nclass = functional", fillcolor="#e581397f"] ;
724 -> 726 ;
727 [label="gini = 0.0\nsamples = 2\nvalue = [2, 0]\nclass = functional", fillcolor="#e58139ff"] ;
726 -> 727 ;
728 [label="construction_year <= 2009.5\ngini = 0.5\nsamples = 4\nvalue = [2, 2]\nclass = functional", fillcolor="#e5813900"] ;
726 -> 728 ;
729 [label="gini = 0.0\nsamples = 1\nvalue = [1, 0]\nclass = functional", fillcolor="#e58139ff"] ;
728 -> 729 ;
730 [label="gps_height <= 0.25\ngini = 0.44\nsamples = 3\nvalue = [1, 2]\nclass = non functional", fillcolor="#399de57f"] ;
728 -> 730 ;
731 [label="gini = 0.0\nsamples = 1\nvalue = [1, 0]\nclass = functional", fillcolor="#e58139ff"] ;
730 -> 731 ;
732 [label="gini = 0.0\nsamples = 2\nvalue = [0, 2]\nclass = non functional", fillcolor="#399de5ff"] ;
730 -> 732 ;
733 [label="gini = 0.0\nsamples = 16\nvalue = [16, 0]\nclass = functional", fillcolor="#e58139ff"] ;
721 -> 733 ;
734 [label="length_operation <= 0.14\ngini = 0.48\nsamples = 194\nvalue = [76, 118]\nclass = non functional", fillcolor="#399de55b"] ;
720 -> 734 ;
735 [label="subvillage_Majengo <= 0.5\ngini = 0.12\nsamples = 31\nvalue = [2, 29]\nclass = non functional", fillcolor="#399de5ed"] ;
734 -> 735 ;
736 [label="lga_Mwembe <= 0.5\ngini = 0.06\nsamples = 30\nvalue = [1, 29]\nclass = non functional", fillcolor="#399de5f6"] ;
735 -> 736 ;
737 [label="gini = 0.0\nsamples = 26\nvalue = [0, 26]\nclass = non functional", fillcolor="#399de5ff"] ;
736 -> 737 ;
738 [label="population <= 0.0\ngini = 0.38\nsamples = 4\nvalue = [1, 3]\nclass = non functional", fillcolor="#399de5aa"] ;
736 -> 738 ;
739 [label="gini = 0.0\nsamples = 1\nvalue = [1, 0]\nclass = functional", fillcolor="#e58139ff"] ;
738 -> 739 ;
740 [label="gini = 0.0\nsamples = 3\nvalue = [0, 3]\nclass = non functional", fillcolor="#399de5ff"] ;
738 -> 740 ;
741 [label="gini = 0.0\nsamples = 1\nvalue = [1, 0]\nclass = functional", fillcolor="#e58139ff"] ;
735 -> 741 ;
742 [label="population <= 0.0\ngini = 0.5\nsamples = 163\nvalue = [74, 89]\nclass = non functional", fillcolor="#399de52b"] ;
734 -> 742 ;
743 [label="construction_year <= 2009.5\ngini = 0.45\nsamples = 59\nvalue = [39, 20]\nclass = functional", fillcolor="#e581397c"] ;
742 -> 743 ;
744 [label="water_quality_insufficient <= 0.5\ngini = 0.36\nsamples = 38\nvalue = [29, 9]\nclass = functional", fillcolor="#e58139b0"] ;
743 -> 744 ;
745 [label="gini = 0.0\nsamples = 13\nvalue = [13, 0]\nclass = functional", fillcolor="#e58139ff"] ;
744 -> 745 ;
746 [label="gps_height <= 0.63\ngini = 0.46\nsamples = 25\nvalue = [16, 9]\nclass = functional", fillcolor="#e5813970"] ;
744 -> 746 ;
747 [label="gps_height <= 0.63\ngini = 0.49\nsamples = 18\nvalue = [10, 8]\nclass = functional", fillcolor="#e5813933"] ;
746 -> 747 ;
748 [label="region_and_code_2 <= 0.5\ngini = 0.47\nsamples = 16\nvalue = [10, 6]\nclass = functional", fillcolor="#e5813966"] ;
747 -> 748 ;
749 [label="gps_height <= 0.52\ngini = 0.28\nsamples = 6\nvalue = [5, 1]\nclass = functional", fillcolor="#e58139cc"] ;
748 -> 749 ;
750 [label="gini = 0.0\nsamples = 5\nvalue = [5, 0]\nclass = functional", fillcolor="#e58139ff"] ;
749 -> 750 ;
751 [label="gini = 0.0\nsamples = 1\nvalue = [0, 1]\nclass = non functional", fillcolor="#399de5ff"] ;
749 -> 751 ;
752 [label="basin_Pangani <= 0.5\ngini = 0.5\nsamples = 10\nvalue = [5, 5]\nclass = functional", fillcolor="#e5813900"] ;
748 -> 752 ;
753 [label="gps_height <= 0.58\ngini = 0.47\nsamples = 8\nvalue = [5, 3]\nclass = functional", fillcolor="#e5813966"] ;
752 -> 753 ;
754 [label="gini = 0.0\nsamples = 2\nvalue = [2, 0]\nclass = functional", fillcolor="#e58139ff"] ;
753 -> 754 ;
755 [label="gps_height <= 0.59\ngini = 0.5\nsamples = 6\nvalue = [3, 3]\nclass = functional", fillcolor="#e5813900"] ;
753 -> 755 ;
756 [label="gini = 0.0\nsamples = 2\nvalue = [0, 2]\nclass = non functional", fillcolor="#399de5ff"] ;
755 -> 756 ;
757 [label="gps_height <= 0.61\ngini = 0.38\nsamples = 4\nvalue = [3, 1]\nclass = functional", fillcolor="#e58139aa"] ;
755 -> 757 ;
758 [label="gini = 0.0\nsamples = 2\nvalue = [2, 0]\nclass = functional", fillcolor="#e58139ff"] ;
757 -> 758 ;
759 [label="gps_height <= 0.62\ngini = 0.5\nsamples = 2\nvalue = [1, 1]\nclass = functional", fillcolor="#e5813900"] ;
757 -> 759 ;
760 [label="gini = 0.0\nsamples = 1\nvalue = [0, 1]\nclass = non functional", fillcolor="#399de5ff"] ;
759 -> 760 ;
761 [label="gini = 0.0\nsamples = 1\nvalue = [1, 0]\nclass = functional", fillcolor="#e58139ff"] ;
759 -> 761 ;
762 [label="gini = 0.0\nsamples = 2\nvalue = [0, 2]\nclass = non functional", fillcolor="#399de5ff"] ;
752 -> 762 ;
763 [label="gini = 0.0\nsamples = 2\nvalue = [0, 2]\nclass = non functional", fillcolor="#399de5ff"] ;
747 -> 763 ;
764 [label="gps_height <= 0.67\ngini = 0.24\nsamples = 7\nvalue = [6, 1]\nclass = functional", fillcolor="#e58139d4"] ;
746 -> 764 ;
765 [label="gini = 0.0\nsamples = 5\nvalue = [5, 0]\nclass = functional", fillcolor="#e58139ff"] ;
764 -> 765 ;
766 [label="gps_height <= 0.68\ngini = 0.5\nsamples = 2\nvalue = [1, 1]\nclass = functional", fillcolor="#e5813900"] ;
764 -> 766 ;
767 [label="gini = 0.0\nsamples = 1\nvalue = [0, 1]\nclass = non functional", fillcolor="#399de5ff"] ;
766 -> 767 ;
768 [label="gini = 0.0\nsamples = 1\nvalue = [1, 0]\nclass = functional", fillcolor="#e58139ff"] ;
766 -> 768 ;
769 [label="basin_Pangani <= 0.5\ngini = 0.5\nsamples = 21\nvalue = [10, 11]\nclass = non functional", fillcolor="#399de517"] ;
743 -> 769 ;
770 [label="gini = 0.0\nsamples = 3\nvalue = [3, 0]\nclass = functional", fillcolor="#e58139ff"] ;
769 -> 770 ;
771 [label="quality_group_spring <= 0.5\ngini = 0.48\nsamples = 18\nvalue = [7, 11]\nclass = non functional", fillcolor="#399de55d"] ;
769 -> 771 ;
772 [label="gini = 0.0\nsamples = 3\nvalue = [3, 0]\nclass = functional", fillcolor="#e58139ff"] ;
771 -> 772 ;
773 [label="construction_year_company <= 0.5\ngini = 0.39\nsamples = 15\nvalue = [4, 11]\nclass = non functional", fillcolor="#399de5a2"] ;
771 -> 773 ;
774 [label="gini = 0.0\nsamples = 5\nvalue = [0, 5]\nclass = non functional", fillcolor="#399de5ff"] ;
773 -> 774 ;
775 [label="gps_height <= 0.46\ngini = 0.48\nsamples = 10\nvalue = [4, 6]\nclass = non functional", fillcolor="#399de555"] ;
773 -> 775 ;
776 [label="gini = 0.0\nsamples = 2\nvalue = [2, 0]\nclass = functional", fillcolor="#e58139ff"] ;
775 -> 776 ;
777 [label="gps_height <= 0.58\ngini = 0.38\nsamples = 8\nvalue = [2, 6]\nclass = non functional", fillcolor="#399de5aa"] ;
775 -> 777 ;
778 [label="gini = 0.0\nsamples = 5\nvalue = [0, 5]\nclass = non functional", fillcolor="#399de5ff"] ;
777 -> 778 ;
779 [label="region_and_code_2 <= 0.5\ngini = 0.44\nsamples = 3\nvalue = [2, 1]\nclass = functional", fillcolor="#e581397f"] ;
777 -> 779 ;
780 [label="gini = 0.0\nsamples = 1\nvalue = [0, 1]\nclass = non functional", fillcolor="#399de5ff"] ;
779 -> 780 ;
