digraph Tree {
node [shape=box, style="filled, rounded", color="black", fontname=helvetica] ;
edge [fontname=helvetica] ;
0 [label="water_quality_dry <= 0.5\nentropy = 0.99\nsamples = 38016\nvalue = [17332, 20684]\nclass = functional needs repair", fillcolor="#399de529"] ;
1 [label="quantity_other <= 0.5\nentropy = 0.97\nsamples = 33993\nvalue = [13418, 20575]\nclass = functional needs repair", fillcolor="#399de559"] ;
0 -> 1 [labeldistance=2.5, labelangle=45, headlabel="True"] ;
2 [label="source_type_Iringa11 <= 0.5\nentropy = 0.93\nsamples = 30824\nvalue = [10796, 20028]\nclass = functional needs repair", fillcolor="#399de576"] ;
1 -> 2 ;
3 [label="construction_year <= 1985.5\nentropy = 0.95\nsamples = 27759\nvalue = [10405, 17354]\nclass = functional needs repair", fillcolor="#399de566"] ;
2 -> 3 ;
4 [label="entropy = 0.98\nsamples = 3517\nvalue = [2059, 1458]\nclass = functional", fillcolor="#e581394a"] ;
3 -> 4 ;
5 [label="entropy = 0.93\nsamples = 24242\nvalue = [8346, 15896]\nclass = functional needs repair", fillcolor="#399de579"] ;
3 -> 5 ;
6 [label="gps_height <= 0.64\nentropy = 0.55\nsamples = 3065\nvalue = [391, 2674]\nclass = functional needs repair", fillcolor="#399de5da"] ;
2 -> 6 ;
7 [label="entropy = 0.61\nsamples = 1506\nvalue = [225, 1281]\nclass = functional needs repair", fillcolor="#399de5d2"] ;
6 -> 7 ;
8 [label="entropy = 0.49\nsamples = 1559\nvalue = [166, 1393]\nclass = functional needs repair", fillcolor="#399de5e1"] ;
6 -> 8 ;
9 [label="water_quality_enough <= 0.5\nentropy = 0.66\nsamples = 3169\nvalue = [2622, 547]\nclass = functional", fillcolor="#e58139ca"] ;
1 -> 9 ;
10 [label="entropy = 0.56\nsamples = 1524\nvalue = [1322, 202]\nclass = functional", fillcolor="#e58139d8"] ;
9 -> 10 ;
11 [label="entropy = 0.74\nsamples = 1645\nvalue = [1300, 345]\nclass = functional", fillcolor="#e58139bb"] ;
9 -> 11 ;
12 [label="waterpoint_type_2013 <= 0.5\nentropy = 0.18\nsamples = 4023\nvalue = [3914, 109]\nclass = functional", fillcolor="#e58139f8"] ;
0 -> 12 [labeldistance=2.5, labelangle=-45, headlabel="False"] ;
13 [label="entropy = 0.22\nsamples = 2308\nvalue = [2229, 79]\nclass = functional", fillcolor="#e58139f6"] ;
12 -> 13 ;
14 [label="entropy = 0.13\nsamples = 1715\nvalue = [1685, 30]\nclass = functional", fillcolor="#e58139fa"] ;
12 -> 14 ;
}